tree
version=v4
num_class=1
num_tree_per_iteration=1
label_index=0
max_feature_idx=2316
objective=binary sigmoid:1
feature_names=ENSG00000205835.9 ENSG00000187634.13 ENSG00000104361.10 ENSG00000127252.7 ENSG00000135116.9 ENSG00000139209.16 ENSG00000046653.15 ENSG00000081803.17 ENSG00000083290.20 ENSG00000081189.17 ENSG00000185532.20 ENSG00000143512.13 ENSG00000106976.22 ENSG00000175895.5 ENSG00000213186.8 ENSG00000111199.12 ENSG00000172020.13 ENSG00000277586.4 ENSG00000001084.13 ENSG00000161681.17 ENSG00000134769.23 ENSG00000162520.15 ENSG00000066032.19 ENSG00000139549.4 ENSG00000138738.11 ENSG00000163431.14 ENSG00000165606.10 ENSG00000187498.16 ENSG00000203722.8 ENSG00000159217.10 ENSG00000136378.15 ENSG00000110660.15 ENSG00000151012.13 ENSG00000182870.13 ENSG00000100678.20 ENSG00000171517.6 ENSG00000146197.9 ENSG00000109472.14 ENSG00000136114.17 ENSG00000174945.14 ENSG00000168938.6 ENSG00000182118.8 ENSG00000156206.14 ENSG00000174015.10 ENSG00000115844.11 ENSG00000123685.9 ENSG00000149735.7 ENSG00000137942.18 ENSG00000144369.14 ENSG00000164853.9 ENSG00000189221.11 ENSG00000130052.14 ENSG00000112186.13 ENSG00000240694.9 ENSG00000198283.3 ENSG00000180998.12 ENSG00000063438.20 ENSG00000114423.23 ENSG00000105866.15 ENSG00000172061.9 ENSG00000163568.16 ENSG00000132932.19 ENSG00000085840.13 ENSG00000178776.5 ENSG00000185652.12 ENSG00000214216.11 ENSG00000136231.14 ENSG00000122176.12 ENSG00000198108.4 ENSG00000173376.14 ENSG00000187672.15 ENSG00000254466.2 ENSG00000153233.13 ENSG00000076706.17 ENSG00000188672.19 ENSG00000026652.15 ENSG00000079257.8 ENSG00000164879.7 ENSG00000056487.16 ENSG00000285218.1 ENSG00000065618.21 ENSG00000100321.15 ENSG00000123364.5 ENSG00000100884.10 ENSG00000169083.18 ENSG00000143869.7 ENSG00000007174.18 ENSG00000172201.12 ENSG00000115425.14 ENSG00000188981.11 ENSG00000248405.10 ENSG00000118322.14 ENSG00000154153.15 ENSG00000156103.16 ENSG00000179869.15 ENSG00000085733.16 ENSG00000183036.11 ENSG00000172461.11 ENSG00000165194.15 ENSG00000092470.12 ENSG00000105376.5 ENSG00000188582.10 ENSG00000078018.22 ENSG00000101311.17 ENSG00000087510.7 ENSG00000148484.18 ENSG00000130962.18 ENSG00000152465.18 ENSG00000113578.18 ENSG00000144583.5 ENSG00000128567.17 ENSG00000106483.12 ENSG00000152402.11 ENSG00000106484.16 ENSG00000143847.16 ENSG00000145087.14 ENSG00000143494.16 ENSG00000152284.5 ENSG00000105278.12 ENSG00000166033.13 ENSG00000163071.11 ENSG00000162337.12 ENSG00000141469.18 ENSG00000152527.14 ENSG00000162728.5 ENSG00000128815.20 ENSG00000133110.15 ENSG00000018236.15 ENSG00000111058.8 ENSG00000149243.17 ENSG00000076344.16 ENSG00000120693.15 ENSG00000162543.6 ENSG00000162068.2 ENSG00000102010.15 ENSG00000165244.7 ENSG00000029534.22 ENSG00000185924.7 ENSG00000168306.13 ENSG00000221852.5 ENSG00000169398.20 ENSG00000084444.14 ENSG00000147234.11 ENSG00000164330.18 ENSG00000130540.14 ENSG00000184500.16 ENSG00000105672.15 ENSG00000167419.11 ENSG00000206561.14 ENSG00000173156.7 ENSG00000130176.8 ENSG00000186472.20 ENSG00000144278.15 ENSG00000168505.7 ENSG00000105290.13 ENSG00000189410.12 ENSG00000151640.13 ENSG00000087116.17 ENSG00000091536.20 ENSG00000180332.7 ENSG00000162377.6 ENSG00000112964.14 ENSG00000204262.14 ENSG00000164109.14 ENSG00000133818.14 ENSG00000180777.15 ENSG00000126895.16 ENSG00000226174.7 ENSG00000129028.9 ENSG00000145700.10 ENSG00000274349.5 ENSG00000196263.8 ENSG00000115457.10 ENSG00000285837.1 ENSG00000171812.13 ENSG00000171303.8 ENSG00000105664.11 ENSG00000137727.13 ENSG00000072163.20 ENSG00000101938.15 ENSG00000080031.10 ENSG00000205363.7 ENSG00000118729.13 ENSG00000119782.14 ENSG00000122786.20 ENSG00000115841.21 ENSG00000021826.18 ENSG00000064270.13 ENSG00000131721.6 ENSG00000007952.18 ENSG00000128610.12 ENSG00000140859.16 ENSG00000131738.11 ENSG00000283128.3 ENSG00000119927.14 ENSG00000198879.13 ENSG00000196639.7 ENSG00000184838.15 ENSG00000251692.8 ENSG00000156234.8 ENSG00000143067.5 ENSG00000091129.22 ENSG00000065320.9 ENSG00000205221.13 ENSG00000140522.12 ENSG00000196873.16 ENSG00000170917.14 ENSG00000163888.4 ENSG00000282936.2 ENSG00000055813.6 ENSG00000158158.12 ENSG00000121903.15 ENSG00000118420.17 ENSG00000188124.4 ENSG00000169330.9 ENSG00000182963.11 ENSG00000104435.14 ENSG00000026559.14 ENSG00000269855.3 ENSG00000169427.8 ENSG00000176160.11 ENSG00000143493.13 ENSG00000102287.19 ENSG00000162591.17 ENSG00000151718.16 ENSG00000100344.11 ENSG00000174332.6 ENSG00000189269.13 ENSG00000132840.10 ENSG00000168874.13 ENSG00000075643.6 ENSG00000154928.19 ENSG00000077063.11 ENSG00000006756.16 ENSG00000176720.6 ENSG00000170417.16 ENSG00000268696.3 ENSG00000170624.14 ENSG00000106617.16 ENSG00000197928.11 ENSG00000165509.13 ENSG00000115380.20 ENSG00000133107.15 ENSG00000248905.10 ENSG00000095637.23 ENSG00000163207.7 ENSG00000258691.1 ENSG00000146477.6 ENSG00000099139.14 ENSG00000283496.1 ENSG00000105717.14 ENSG00000050555.19 ENSG00000079435.10 ENSG00000196208.14 ENSG00000177839.7 ENSG00000176406.25 ENSG00000197381.18 ENSG00000074219.14 ENSG00000103740.10 ENSG00000146938.16 ENSG00000129673.10 ENSG00000151491.14 ENSG00000180537.13 ENSG00000046774.10 ENSG00000169245.6 ENSG00000162620.16 ENSG00000136698.10 ENSG00000049323.16 ENSG00000101605.14 ENSG00000028277.22 ENSG00000184675.11 ENSG00000183578.8 ENSG00000166831.9 ENSG00000187173.4 ENSG00000157782.10 ENSG00000263155.6 ENSG00000047457.14 ENSG00000018625.15 ENSG00000140459.18 ENSG00000282301.4 ENSG00000186806.6 ENSG00000162873.15 ENSG00000182985.19 ENSG00000064886.14 ENSG00000137878.17 ENSG00000223802.9 ENSG00000214652.6 ENSG00000145808.10 ENSG00000147257.16 ENSG00000198910.14 ENSG00000213892.12 ENSG00000020181.18 ENSG00000152484.14 ENSG00000114251.15 ENSG00000133256.13 ENSG00000099998.19 ENSG00000165197.5 ENSG00000138696.11 ENSG00000186230.7 ENSG00000166816.15 ENSG00000197106.7 ENSG00000076716.9 ENSG00000095110.9 ENSG00000188064.10 ENSG00000126010.6 ENSG00000149294.18 ENSG00000139329.5 ENSG00000141040.15 ENSG00000166743.10 ENSG00000135547.9 ENSG00000172164.15 ENSG00000272305.5 ENSG00000183092.18 ENSG00000170745.12 ENSG00000088854.13 ENSG00000196932.12 ENSG00000102362.16 ENSG00000226887.8 ENSG00000196605.7 ENSG00000162849.16 ENSG00000101200.5 ENSG00000178409.14 ENSG00000145147.20 ENSG00000162843.18 ENSG00000127362.2 ENSG00000169933.17 ENSG00000119913.6 ENSG00000146670.10 ENSG00000113532.13 ENSG00000164604.14 ENSG00000142583.18 ENSG00000175287.19 ENSG00000082126.18 ENSG00000113569.16 ENSG00000127903.14 ENSG00000105426.19 ENSG00000106823.13 ENSG00000171729.14 ENSG00000243137.8 ENSG00000196482.18 ENSG00000174951.12 ENSG00000168356.13 ENSG00000150907.10 ENSG00000206140.12 ENSG00000145103.15 ENSG00000050405.14 ENSG00000101203.17 ENSG00000173080.6 ENSG00000013297.12 ENSG00000177707.11 ENSG00000163017.14 ENSG00000113296.14 ENSG00000101098.13 ENSG00000003137.9 ENSG00000162975.5 ENSG00000149557.14 ENSG00000133026.14 ENSG00000116985.12 ENSG00000136160.17 ENSG00000138741.11 ENSG00000050165.19 ENSG00000219438.9 ENSG00000064199.7 ENSG00000169122.12 ENSG00000171121.17 ENSG00000140323.6 ENSG00000159212.13 ENSG00000005249.14 ENSG00000075702.19 ENSG00000124006.15 ENSG00000069431.14 ENSG00000088538.13 ENSG00000149201.10 ENSG00000002745.13 ENSG00000196196.3 ENSG00000196376.11 ENSG00000043355.12 ENSG00000136531.19 ENSG00000141738.14 ENSG00000135111.16 ENSG00000131386.20 ENSG00000163394.6 ENSG00000162062.15 ENSG00000139679.16 ENSG00000101850.13 ENSG00000145757.16 ENSG00000180155.20 ENSG00000169213.7 ENSG00000163359.17 ENSG00000106772.19 ENSG00000171444.19 ENSG00000129244.9 ENSG00000125869.10 ENSG00000166923.12 ENSG00000112232.10 ENSG00000169946.14 ENSG00000196620.10 ENSG00000007933.13 ENSG00000159723.5 ENSG00000084674.15 ENSG00000131941.8 ENSG00000169594.14 ENSG00000164197.12 ENSG00000103489.12 ENSG00000168955.4 ENSG00000213471.10 ENSG00000042062.13 ENSG00000109906.15 ENSG00000236609.4 ENSG00000134318.16 ENSG00000164638.11 ENSG00000138639.18 ENSG00000050030.16 ENSG00000140506.17 ENSG00000163453.11 ENSG00000170743.17 ENSG00000184916.9 ENSG00000203780.12 ENSG00000099822.3 ENSG00000197614.11 ENSG00000169418.10 ENSG00000177181.15 ENSG00000102359.9 ENSG00000160746.13 ENSG00000171631.16 ENSG00000143552.10 ENSG00000175471.20 ENSG00000168785.8 ENSG00000215853.3 ENSG00000167210.17 ENSG00000198959.12 ENSG00000149043.17 ENSG00000137809.17 ENSG00000166682.13 ENSG00000166396.13 ENSG00000164167.12 ENSG00000129596.5 ENSG00000177465.5 ENSG00000164430.17 ENSG00000170122.6 ENSG00000104332.12 ENSG00000196141.14 ENSG00000130940.15 ENSG00000184937.16 ENSG00000075073.16 ENSG00000197603.16 ENSG00000151376.18 ENSG00000198523.6 ENSG00000174697.5 ENSG00000153976.3 ENSG00000156920.11 ENSG00000198796.7 ENSG00000167637.18 ENSG00000132031.13 ENSG00000163110.15 ENSG00000142182.9 ENSG00000144229.13 ENSG00000175879.9 ENSG00000173267.14 ENSG00000164778.4 ENSG00000107731.12 ENSG00000181938.14 ENSG00000103241.7 ENSG00000185838.14 ENSG00000165899.12 ENSG00000116678.20 ENSG00000283526.2 ENSG00000112655.16 ENSG00000222038.4 ENSG00000189320.9 ENSG00000074964.17 ENSG00000203877.9 ENSG00000213424.9 ENSG00000157064.11 ENSG00000120328.6 ENSG00000078725.13 ENSG00000148680.16 ENSG00000148848.15 ENSG00000104951.16 ENSG00000176601.14 ENSG00000107796.13 ENSG00000206557.6 ENSG00000101333.19 ENSG00000176490.5 ENSG00000007384.15 ENSG00000244405.8 ENSG00000184574.10 ENSG00000123496.8 ENSG00000185133.14 ENSG00000168772.12 ENSG00000131080.15 ENSG00000185640.6 ENSG00000152413.15 ENSG00000136859.10 ENSG00000196152.10 ENSG00000150687.12 ENSG00000181634.8 ENSG00000115556.14 ENSG00000170873.19 ENSG00000156298.13 ENSG00000080561.14 ENSG00000170684.10 ENSG00000187997.12 ENSG00000072201.14 ENSG00000162139.10 ENSG00000133816.19 ENSG00000164841.5 ENSG00000149090.13 ENSG00000128602.11 ENSG00000162407.9 ENSG00000165996.14 ENSG00000170262.13 ENSG00000196860.8 ENSG00000111799.22 ENSG00000150594.7 ENSG00000006468.15 ENSG00000100154.15 ENSG00000139133.7 ENSG00000179104.9 ENSG00000205111.10 ENSG00000169313.10 ENSG00000133216.17 ENSG00000165246.15 ENSG00000104055.17 ENSG00000188710.3 ENSG00000185565.13 ENSG00000143603.19 ENSG00000136237.20 ENSG00000179083.7 ENSG00000144366.17 ENSG00000188263.11 ENSG00000138829.14 ENSG00000101746.16 ENSG00000269964.4 ENSG00000019991.18 ENSG00000164185.7 ENSG00000175426.11 ENSG00000134873.10 ENSG00000150051.14 ENSG00000081148.12 ENSG00000165269.13 ENSG00000111405.9 ENSG00000161267.12 ENSG00000143476.18 ENSG00000215218.4 ENSG00000140527.15 ENSG00000186150.5 ENSG00000157103.13 ENSG00000092621.13 ENSG00000197580.13 ENSG00000116128.12 ENSG00000165383.12 ENSG00000097046.13 ENSG00000119242.9 ENSG00000152377.15 ENSG00000140937.14 ENSG00000137273.6 ENSG00000166068.13 ENSG00000163701.19 ENSG00000143786.8 ENSG00000157470.12 ENSG00000108830.11 ENSG00000185090.15 ENSG00000106236.4 ENSG00000261115.7 ENSG00000035664.11 ENSG00000196507.11 ENSG00000133710.17 ENSG00000139780.8 ENSG00000074706.14 ENSG00000185164.15 ENSG00000261739.3 ENSG00000162631.20 ENSG00000172915.20 ENSG00000075429.9 ENSG00000166363.6 ENSG00000161860.8 ENSG00000140538.17 ENSG00000079156.17 ENSG00000275111.5 ENSG00000170899.11 ENSG00000184995.7 ENSG00000008300.17 ENSG00000144354.15 ENSG00000150656.15 ENSG00000123999.5 ENSG00000110092.4 ENSG00000186335.9 ENSG00000177519.4 ENSG00000154118.13 ENSG00000135298.15 ENSG00000169258.7 ENSG00000180730.5 ENSG00000134716.11 ENSG00000094963.14 ENSG00000169126.16 ENSG00000101004.16 ENSG00000106178.7 ENSG00000123191.17 ENSG00000166532.16 ENSG00000158315.11 ENSG00000138675.17 ENSG00000168004.10 ENSG00000185737.13 ENSG00000174827.14 ENSG00000167880.8 ENSG00000184226.15 ENSG00000144712.13 ENSG00000173208.4 ENSG00000160886.13 ENSG00000137474.23 ENSG00000182575.8 ENSG00000115468.13 ENSG00000099260.12 ENSG00000197140.15 ENSG00000166603.5 ENSG00000111012.10 ENSG00000164076.17 ENSG00000203989.5 ENSG00000217236.2 ENSG00000134962.7 ENSG00000115295.21 ENSG00000108852.16 ENSG00000223601.3 ENSG00000135525.19 ENSG00000149968.12 ENSG00000183111.12 ENSG00000054793.14 ENSG00000157927.17 ENSG00000114455.15 ENSG00000283516.2 ENSG00000154678.18 ENSG00000198914.5 ENSG00000060709.17 ENSG00000125084.13 ENSG00000235109.8 ENSG00000130695.16 ENSG00000099282.10 ENSG00000121310.17 ENSG00000169495.5 ENSG00000123473.17 ENSG00000066279.19 ENSG00000144355.15 ENSG00000184408.10 ENSG00000124721.18 ENSG00000225614.4 ENSG00000182326.17 ENSG00000181234.10 ENSG00000228672.4 ENSG00000187372.11 ENSG00000073670.14 ENSG00000164761.9 ENSG00000169607.13 ENSG00000088836.14 ENSG00000157150.5 ENSG00000178038.17 ENSG00000166111.10 ENSG00000183682.8 ENSG00000090447.12 ENSG00000138028.17 ENSG00000136694.9 ENSG00000131668.14 ENSG00000082438.18 ENSG00000160867.15 ENSG00000183690.13 ENSG00000188158.17 ENSG00000159433.12 ENSG00000188581.9 ENSG00000003147.19 ENSG00000128714.6 ENSG00000146955.11 ENSG00000102383.14 ENSG00000104290.11 ENSG00000256671.7 ENSG00000225830.16 ENSG00000011332.22 ENSG00000148498.17 ENSG00000089847.13 ENSG00000135324.6 ENSG00000174740.8 ENSG00000152078.10 ENSG00000124343.14 ENSG00000146281.6 ENSG00000136696.11 ENSG00000117407.17 ENSG00000174808.12 ENSG00000288591.1 ENSG00000135297.17 ENSG00000113100.10 ENSG00000143845.15 ENSG00000198739.11 ENSG00000183230.18 ENSG00000084734.9 ENSG00000172927.9 ENSG00000258484.4 ENSG00000132329.11 ENSG00000142149.9 ENSG00000164283.13 ENSG00000158571.11 ENSG00000120784.17 ENSG00000158270.12 ENSG00000183346.9 ENSG00000108255.8 ENSG00000162373.13 ENSG00000100003.18 ENSG00000119280.17 ENSG00000158445.10 ENSG00000144821.11 ENSG00000187243.17 ENSG00000157111.13 ENSG00000122012.14 ENSG00000165617.16 ENSG00000075213.11 ENSG00000128512.24 ENSG00000144554.13 ENSG00000214402.7 ENSG00000105650.23 ENSG00000109610.6 ENSG00000136542.9 ENSG00000182107.7 ENSG00000163710.9 ENSG00000250722.6 ENSG00000156463.18 ENSG00000074416.16 ENSG00000174804.4 ENSG00000080224.18 ENSG00000173253.16 ENSG00000161594.7 ENSG00000119608.15 ENSG00000152583.13 ENSG00000104043.15 ENSG00000119630.14 ENSG00000064195.7 ENSG00000170011.14 ENSG00000099625.14 ENSG00000164400.6 ENSG00000107186.17 ENSG00000203837.5 ENSG00000006047.13 ENSG00000121753.13 ENSG00000258644.6 ENSG00000106031.9 ENSG00000284479.2 ENSG00000157152.17 ENSG00000189056.15 ENSG00000164379.7 ENSG00000110888.19 ENSG00000197980.14 ENSG00000175183.10 ENSG00000082781.12 ENSG00000100625.9 ENSG00000140022.14 ENSG00000106605.11 ENSG00000050820.17 ENSG00000171657.6 ENSG00000076555.16 ENSG00000162989.5 ENSG00000267561.2 ENSG00000167183.3 ENSG00000161544.10 ENSG00000154917.11 ENSG00000142279.13 ENSG00000254636.1 ENSG00000204624.8 ENSG00000184160.8 ENSG00000157680.17 ENSG00000175445.17 ENSG00000132330.18 ENSG00000198520.12 ENSG00000112769.20 ENSG00000120324.9 ENSG00000002587.10 ENSG00000184524.6 ENSG00000182050.14 ENSG00000151322.20 ENSG00000232859.10 ENSG00000101680.16 ENSG00000118402.6 ENSG00000184985.16 ENSG00000182111.9 ENSG00000186075.13 ENSG00000118200.15 ENSG00000125355.16 ENSG00000139053.3 ENSG00000163206.6 ENSG00000162878.13 ENSG00000164627.18 ENSG00000112293.15 ENSG00000157399.17 ENSG00000170801.10 ENSG00000123500.10 ENSG00000180815.15 ENSG00000077327.16 ENSG00000117707.17 ENSG00000164434.12 ENSG00000125816.5 ENSG00000124212.6 ENSG00000197461.13 ENSG00000105131.8 ENSG00000164904.18 ENSG00000132016.12 ENSG00000077279.21 ENSG00000218336.9 ENSG00000166402.9 ENSG00000095539.16 ENSG00000116039.13 ENSG00000187323.13 ENSG00000214140.11 ENSG00000120549.19 ENSG00000114923.17 ENSG00000091513.16 ENSG00000181619.12 ENSG00000184672.12 ENSG00000170425.4 ENSG00000197506.8 ENSG00000166510.14 ENSG00000121570.13 ENSG00000171954.13 ENSG00000198785.7 ENSG00000151490.15 ENSG00000069535.14 ENSG00000111344.12 ENSG00000120341.19 ENSG00000183091.21 ENSG00000084628.10 ENSG00000162746.15 ENSG00000056998.21 ENSG00000131650.15 ENSG00000188959.10 ENSG00000124479.11 ENSG00000144045.14 ENSG00000050730.16 ENSG00000129038.16 ENSG00000148082.10 ENSG00000197702.14 ENSG00000164142.16 ENSG00000107282.9 ENSG00000120049.20 ENSG00000129474.17 ENSG00000089472.18 ENSG00000197888.3 ENSG00000128298.18 ENSG00000128250.5 ENSG00000243978.9 ENSG00000240386.4 ENSG00000186280.7 ENSG00000076554.16 ENSG00000108387.16 ENSG00000157554.20 ENSG00000153246.13 ENSG00000122378.14 ENSG00000159917.17 ENSG00000147041.12 ENSG00000187026.3 ENSG00000163528.13 ENSG00000079387.15 ENSG00000117152.14 ENSG00000179165.12 ENSG00000186417.15 ENSG00000176692.8 ENSG00000067715.15 ENSG00000151364.17 ENSG00000181856.15 ENSG00000124429.18 ENSG00000107165.13 ENSG00000100122.7 ENSG00000135540.12 ENSG00000109339.24 ENSG00000135740.17 ENSG00000231824.4 ENSG00000157168.22 ENSG00000198513.14 ENSG00000138755.6 ENSG00000148488.17 ENSG00000167306.21 ENSG00000139880.21 ENSG00000104415.14 ENSG00000131016.17 ENSG00000163202.5 ENSG00000009950.16 ENSG00000127081.14 ENSG00000173894.11 ENSG00000072133.12 ENSG00000117791.16 ENSG00000111077.18 ENSG00000189046.11 ENSG00000183814.16 ENSG00000158458.21 ENSG00000169851.16 ENSG00000103888.17 ENSG00000187566.6 ENSG00000116711.10 ENSG00000118298.12 ENSG00000186469.9 ENSG00000106278.12 ENSG00000102043.16 ENSG00000186212.4 ENSG00000181541.6 ENSG00000144668.12 ENSG00000197479.7 ENSG00000102349.18 ENSG00000179331.3 ENSG00000039068.20 ENSG00000196581.11 ENSG00000145736.15 ENSG00000006704.11 ENSG00000107984.10 ENSG00000234719.9 ENSG00000144115.18 ENSG00000114739.14 ENSG00000099984.12 ENSG00000189057.11 ENSG00000131094.4 ENSG00000148677.7 ENSG00000279486.6 ENSG00000137675.5 ENSG00000137825.11 ENSG00000141338.15 ENSG00000170153.11 ENSG00000165757.9 ENSG00000178882.15 ENSG00000165300.8 ENSG00000171408.14 ENSG00000204052.5 ENSG00000251537.4 ENSG00000117122.14 ENSG00000178773.15 ENSG00000183671.13 ENSG00000125378.16 ENSG00000183150.8 ENSG00000183773.16 ENSG00000114346.14 ENSG00000110195.14 ENSG00000150627.16 ENSG00000221818.9 ENSG00000270011.9 ENSG00000173452.15 ENSG00000118432.13 ENSG00000123213.23 ENSG00000130876.11 ENSG00000143147.15 ENSG00000166578.10 ENSG00000262655.4 ENSG00000128564.8 ENSG00000106688.12 ENSG00000189001.11 ENSG00000106665.16 ENSG00000124249.7 ENSG00000186377.8 ENSG00000108846.16 ENSG00000188153.14 ENSG00000179168.15 ENSG00000183722.9 ENSG00000087076.9 ENSG00000022267.19 ENSG00000086991.13 ENSG00000139292.13 ENSG00000242550.7 ENSG00000115461.5 ENSG00000112137.19 ENSG00000182759.4 ENSG00000149972.12 ENSG00000198768.11 ENSG00000138606.20 ENSG00000178184.16 ENSG00000196275.16 ENSG00000158292.7 ENSG00000179403.12 ENSG00000101280.8 ENSG00000072195.15 ENSG00000105825.14 ENSG00000100350.16 ENSG00000289716.1 ENSG00000277758.6 ENSG00000253598.3 ENSG00000130829.18 ENSG00000006659.13 ENSG00000185252.19 ENSG00000169435.14 ENSG00000147180.17 ENSG00000261341.7 ENSG00000113763.12 ENSG00000243660.12 ENSG00000144810.16 ENSG00000123572.17 ENSG00000187474.5 ENSG00000070371.16 ENSG00000170054.16 ENSG00000164877.19 ENSG00000144339.12 ENSG00000177947.15 ENSG00000182508.14 ENSG00000085999.13 ENSG00000124749.18 ENSG00000164362.21 ENSG00000171695.11 ENSG00000254806.5 ENSG00000067177.15 ENSG00000185662.11 ENSG00000112578.10 ENSG00000013016.16 ENSG00000101132.10 ENSG00000204382.12 ENSG00000183638.6 ENSG00000115008.6 ENSG00000054356.14 ENSG00000147576.17 ENSG00000038382.23 ENSG00000276231.5 ENSG00000204540.11 ENSG00000137968.17 ENSG00000117245.13 ENSG00000011083.9 ENSG00000137507.11 ENSG00000230453.11 ENSG00000160207.9 ENSG00000114698.15 ENSG00000183715.15 ENSG00000007866.22 ENSG00000197238.5 ENSG00000118849.10 ENSG00000284686.1 ENSG00000155846.17 ENSG00000105251.11 ENSG00000134042.14 ENSG00000141316.13 ENSG00000196427.14 ENSG00000174792.11 ENSG00000183840.8 ENSG00000213626.13 ENSG00000139988.10 ENSG00000157110.16 ENSG00000122136.14 ENSG00000134256.13 ENSG00000120160.11 ENSG00000124490.14 ENSG00000231738.11 ENSG00000102962.5 ENSG00000188015.10 ENSG00000159423.17 ENSG00000100739.11 ENSG00000138685.18 ENSG00000114859.16 ENSG00000179300.4 ENSG00000172382.10 ENSG00000162458.13 ENSG00000166979.13 ENSG00000050628.21 ENSG00000156959.9 ENSG00000119636.16 ENSG00000126500.4 ENSG00000092853.14 ENSG00000011347.10 ENSG00000117600.14 ENSG00000166828.3 ENSG00000111536.5 ENSG00000163064.7 ENSG00000285547.1 ENSG00000189134.4 ENSG00000164484.12 ENSG00000133401.16 ENSG00000206535.8 ENSG00000240505.9 ENSG00000165164.14 ENSG00000090932.11 ENSG00000181773.7 ENSG00000126249.8 ENSG00000101440.10 ENSG00000276023.5 ENSG00000171877.21 ENSG00000185269.12 ENSG00000253159.3 ENSG00000130224.15 ENSG00000102452.18 ENSG00000163106.11 ENSG00000036828.17 ENSG00000292354.1 ENSG00000134013.16 ENSG00000174607.11 ENSG00000184361.13 ENSG00000138798.13 ENSG00000142528.16 ENSG00000120278.17 ENSG00000166845.15 ENSG00000110675.13 ENSG00000152049.7 ENSG00000170961.7 ENSG00000170790.6 ENSG00000143179.16 ENSG00000171587.15 ENSG00000177380.14 ENSG00000101255.12 ENSG00000121743.4 ENSG00000108702.4 ENSG00000164929.17 ENSG00000030066.14 ENSG00000167131.17 ENSG00000177570.15 ENSG00000162598.13 ENSG00000163531.17 ENSG00000091136.15 ENSG00000149922.12 ENSG00000196188.12 ENSG00000145861.9 ENSG00000064692.20 ENSG00000130300.9 ENSG00000149212.12 ENSG00000112139.17 ENSG00000162624.16 ENSG00000154040.21 ENSG00000129810.15 ENSG00000115194.11 ENSG00000137877.10 ENSG00000082269.17 ENSG00000172824.17 ENSG00000047230.15 ENSG00000154099.18 ENSG00000167992.14 ENSG00000162692.12 ENSG00000135218.19 ENSG00000177311.12 ENSG00000204179.11 ENSG00000170820.12 ENSG00000133488.15 ENSG00000168077.14 ENSG00000165795.25 ENSG00000168070.12 ENSG00000139910.20 ENSG00000112218.9 ENSG00000149609.6 ENSG00000182359.15 ENSG00000149328.16 ENSG00000106034.18 ENSG00000175806.15 ENSG00000198822.11 ENSG00000262406.3 ENSG00000116962.15 ENSG00000188807.13 ENSG00000197496.6 ENSG00000184933.6 ENSG00000184792.16 ENSG00000132688.11 ENSG00000159259.8 ENSG00000213793.6 ENSG00000104067.17 ENSG00000099284.15 ENSG00000165568.18 ENSG00000165891.16 ENSG00000124374.9 ENSG00000143498.18 ENSG00000141934.10 ENSG00000181092.10 ENSG00000125485.18 ENSG00000166819.12 ENSG00000055118.17 MI0006382 MI0003637 MI0019145 MIMAT0004807 MIMAT0000086 MIMAT0005871 Hsa_Mir_3194_pri_3p Hsa_Mir_1307_3p__seed Hsa_Mir_33_P3_pri_3p MIMAT0022290 MI0022613 MI0025900 Hsa_Mir_324_5p_seed MIMAT0015048 MIMAT0004584 MI0000268 MI0014181 MIMAT0027375 MI0019287 Hsa_Mir_3140_3p_seed Hsa_Mir_2355_loop Hsa_Mir_325_pri_3p MI0016601 MI0017336 MIMAT0002891 Hsa_Mir_92_P2d_3p_seed Hsa_Mir_15_P2b_pri_5p MI0022550 MIMAT0019213 MIMAT0019215 Hsa_Mir_24_P2_loop MI0019144 Hsa_Mir_1307_pri_5p MIMAT0009447_1 MIMAT0018952 MI0005118 MI0022602 MI0007258 MI0000439 MI0000476 Hsa_Mir_92_P1a_pri_5p MI0000434 MI0017378 MI0017369 MIMAT0003222 Hsa_Mir_27_P3_5p__seed MIMAT0019360 MIMAT0000427 MIMAT0019702 Hsa_Mir_132_P1_pri Hsa_Mir_224_pri_3p MI0022552 MI0003616 Hsa_Mir_29_P1d_v1_3p_seed MIMAT0027673 MI0006369 Hsa_Mir_550_P2a_pri MI0017376 MI0014154 Hsa_Let_7_P2a3_pri MIMAT0003246 MIMAT0014987 Hsa_Mir_1247_pri_3p MIMAT0019918 Hsa_Mir_3174_pri_5p MI0015843 MIMAT0004490 MI0020358 MIMAT0026639 MIMAT0003267 Hsa_Mir_149_pri MIMAT0018104 Hsa_Mir_27_P2_pri_5p MI0006432 Hsa_Mir_769_pri_5p Hsa_Mir_34_P1_pri MI0016846 MIMAT0027479 Hsa_Mir_7151_pri MIMAT0019984 Hsa_Mir_423_pri Hsa_Mir_1306_3p__seed MIMAT0004615 Hsa_Mir_3187_pre MI0003660 MIMAT0001618 MIMAT0014984 Hsa_Mir_30_P2d_pri_5p Hsa_Mir_23_P3_3p_seed MI0017276 Hsa_Mir_19_P1a_pri MIMAT0003293 Hsa_Mir_1910_pri MIMAT0025464 Hsa_Mir_339_pri MI0006433 Hsa_Mir_5579_pri MIMAT0027660 MIMAT0019896 MIMAT0016873 MI0022729 MI0008331 MI0019307 Hsa_Mir_199_P1_v3_3p_seed MIMAT0019079 MIMAT0025480 MI0033419 MI0016810 MI0014240 MI0000089 Hsa_Mir_3136_3p__seed MIMAT0000693 MIMAT0019875 Hsa_Mir_144_v2_pri MIMAT0000091 Hsa_Mir_1910_pri_3p MIMAT0005586 MI0000478 MIMAT0015067 MI0019283 Hsa_Mir_23_P2_pri Hsa_Mir_219_P2_pri MIMAT0000683 Hsa_Mir_15_P1b_pri_5p Hsa_Mir_576_pri_3p MIMAT0000714 MIMAT0027679 MIMAT0018105 MI0014253 MI0022661 MIMAT0019788 MIMAT0019878 MIMAT0005576 Hsa_Mir_24_P2_pri MI0022583 MI0016596 MI0014228 MIMAT0003231 MI0022682 MI0022601 Hsa_Mir_17_P1a_pri_5p MI0003764 MIMAT0004957 Hsa_Mir_374_P2_5p_seed MI0000253 Hsa_Mir_29_P1b_v2_pri_3p Hsa_Mir_3942_pri MIMAT0028221 MIMAT0018926_1 MIMAT0018986 Hsa_Mir_33_P3_pri_5p MIMAT0027664 MIMAT0011160 MIMAT0027472 MIMAT0019204 MI0017309 MIMAT0024613 MI0020350 MIMAT0000760 MI0016797 MI0022708 MI0014239 MIMAT0027672 MIMAT0005928 MI0016599 MI0000824 Hsa_Mir_29_P2b_3p_seed MIMAT0018090 MIMAT0000269 MI0016878 Hsa_Mir_615_pri_3p MI0016879 MIMAT0026637 MI0015873 MIMAT0005577 MIMAT0000069_1 MIMAT0019013 Hsa_Mir_770_5p MI0020356 MI0022586 MI0017382 MI0022582 MI0017440 Hsa_Mir_589_pri_3p Hsa_Mir_576_loop MIMAT0019033 Hsa_Mir_193_P1b_pri_5p MI0006412 MIMAT0018960 MI0019302 MI0000438 Hsa_Mir_145_pri_3p Hsa_Mir_1247_pri MI0014252 Hsa_Mir_17_P1a_pri MIMAT0018106_1 MIMAT0005863 Hsa_Mir_133_P1_v1_pri_3p MI0017371 MIMAT0019019 MI0006318 MIMAT0019850 Hsa_Mir_574_loop Hsa_Mir_138_P1_pri MI0015857 MI0025904 Hsa_Let_7_P2b1_pre NONHSAT201811.1 NONHSAT156377.1 ENSG00000233308.2 ENSG00000287629.1 NONHSAT015505.2 NONHSAT103707.2 NONHSAT157487.1 NONHSAT007803.2 NONHSAT156003.1 NONHSAT101664.2 NONHSAT245370.1 NONHSAT101663.2 NONHSAT228411.1 NONHSAT178265.1 NONHSAT014162.2 NONHSAT105529.2 NONHSAT039756.2 ENSG00000260774.1 NONHSAT087136.2 NONHSAT211548.1 NONHSAT041696.2 ENSG00000225752.1 NONHSAT171906.1 NONHSAT242849.1 NONHSAT115036.2 ENSG00000236882.9 NONHSAT164824.1 NONHSAT155352.1 NONHSAT015601.2 NONHSAT155855.1 NONHSAT194605.1 ENSG00000254006.5 NONHSAT098514.2 NONHSAT176587.1 NONHSAT209031.1 NONHSAT184553.1 NONHSAT228356.1 ENSG00000275880.1 NONHSAT004284.2 NONHSAT092031.2 NONHSAT168646.1 ENSG00000245067.8 NONHSAT182142.1 ENSG00000249815.2 ENSG00000234758.1 NONHSAT256354.1 ENSG00000189316.3 NONHSAT096707.2 NONHSAT138671.2 ENSG00000261193.1 ENSG00000263417.6 NONHSAT175898.1 NONHSAT220938.1 ENSG00000232265.8 NONHSAT252233.1 ENSG00000232993.1 NONHSAT131689.2 NONHSAT148361.1 NONHSAT164250.1 NONHSAT160682.1 NONHSAT211535.1 NONHSAT155813.1 NONHSAT213891.1 NONHSAT230999.1 NONHSAT151652.1 NONHSAT230956.1 ENSG00000223914.5 NONHSAT228404.1 NONHSAT198269.1 NONHSAT094900.2 NONHSAT192960.1 NONHSAT250252.1 NONHSAT122035.2 NONHSAT160564.1 NONHSAT227127.1 ENSG00000205037.2 NONHSAT192183.1 NONHSAT121050.2 NONHSAT227891.1 NONHSAT209068.1 NONHSAT031650.2 NONHSAT166714.1 NONHSAT067482.2 NONHSAT125588.2 NONHSAT017764.2 ENSG00000259062.2 NONHSAT191557.1 NONHSAT030980.2 NONHSAT068693.2 NONHSAT228773.1 ENSG00000232814.2 NONHSAT250063.1 ENSG00000291061.1 NONHSAT229601.1 NONHSAT129217.2 ENSG00000287727.1 NONHSAT101104.2 NONHSAT102235.2 ENSG00000286294.2 ENSG00000254109.6 NONHSAT126758.2 NONHSAT232572.1 NONHSAT196600.1 NONHSAT220752.1 ENSG00000287896.1 NONHSAT016854.2 ENSG00000282816.1 NONHSAT098591.2 NONHSAT221793.1 NONHSAT248712.1 NONHSAT234463.1 ENSG00000254418.1 NONHSAT015133.2 ENSG00000278962.1 NONHSAT194574.1 ENSG00000223947.1 ENSG00000259370.2 NONHSAT213629.1 NONHSAT234281.1 NONHSAT242233.1 ENSG00000268316.1 ENSG00000223662.1 NONHSAT243928.1 NONHSAT022459.2 NONHSAT122804.2 NONHSAT035152.2 NONHSAT227482.1 ENSG00000258708.1 ENSG00000264514.1 NONHSAT242354.1 NONHSAT151655.1 NONHSAT206745.1 NONHSAT249633.1 NONHSAT119953.2 NONHSAT015064.2 ENSG00000277938.1 NONHSAT257750.1 NONHSAT255703.1 NONHSAT126851.2 ENSG00000230229.1 ENSG00000256064.1 NONHSAT015391.2 NONHSAT089038.2 NONHSAT157352.1 ENSG00000245719.1 NONHSAT204363.1 ENSG00000261276.1 NONHSAT186353.1 NONHSAT004089.2 NONHSAT223565.1 NONHSAT124358.2 NONHSAT177519.1 NONHSAT188891.1 NONHSAT213752.1 NONHSAT095593.2 ENSG00000290847.1 ENSG00000279243.3 NONHSAT220544.1 NONHSAT213314.1 NONHSAT131819.2 NONHSAT249609.1 NONHSAT238532.1 NONHSAT157684.1 ENSG00000244137.1 NONHSAT115642.2 NONHSAT244620.1 NONHSAT246954.1 NONHSAT254705.1 NONHSAT107993.2 ENSG00000280163.1 NONHSAT160344.1 NONHSAT156297.1 NONHSAT173435.1 NONHSAT108122.2 NONHSAT188836.1 ENSG00000263338.1 NONHSAT220001.1 NONHSAT230858.1 ENSG00000269068.1 NONHSAT145008.2 NONHSAT195396.1 NONHSAT224420.1 NONHSAT078330.2 ENSG00000259498.1 NONHSAT119653.2 NONHSAT058680.2 NONHSAT241896.1 ENSG00000264745.1 ENSG00000273796.2 NONHSAT192274.1 NONHSAT232024.1 NONHSAT129255.2 ENSG00000261070.1 NONHSAT033618.2 NONHSAT250744.1 ENSG00000244468.1 NONHSAT220277.1 NONHSAT081172.2 NONHSAT229265.1 NONHSAT253455.1 NONHSAT224005.1 ENSG00000273816.1 NONHSAT171159.1 NONHSAT180191.1 NONHSAT245336.1 NONHSAT122038.2 NONHSAT076406.2 NONHSAT173191.1 NONHSAT231947.1 NONHSAT212737.1 NONHSAT137896.2 NONHSAT213843.1 NONHSAT227308.1 ENSG00000279490.1 NONHSAT227118.1 NONHSAT039757.2 ENSG00000250263.2 ENSG00000291020.1 NONHSAT223355.1 NONHSAT058607.2 NONHSAT185164.1 NONHSAT243132.1 NONHSAT156300.1 NONHSAT164208.1 NONHSAT148358.1 NONHSAT060680.2 NONHSAT144349.2 NONHSAT029388.2 ENSG00000272482.2 NONHSAT227803.1 NONHSAT188290.1 NONHSAT203184.1 NONHSAT046887.2 NONHSAT244932.1 NONHSAT047738.2 NONHSAT252783.1 NONHSAT036474.2 NONHSAT178029.1 NONHSAT246365.1 ENSG00000242082.2 NONHSAT176404.1 NONHSAT088009.2 NONHSAT037154.2 ENSG00000261578.1 ENSG00000229671.3 NONHSAT009387.2 NONHSAT160098.1 NONHSAT015140.2 NONHSAT143053.2 NONHSAT073791.2 NONHSAT238758.1 ENSG00000266288.1 NONHSAT136293.2 NONHSAT217651.1 NONHSAT155354.1 NONHSAT237747.1 NONHSAT009270.2 NONHSAT102280.2 NONHSAT228402.1 NONHSAT228741.1 NONHSAT186253.1 NONHSAT257625.1 NONHSAT248094.1 NONHSAT046588.2 NONHSAT150037.1 NONHSAT200431.1 NONHSAT193141.1 NONHSAT067483.2 NONHSAT226014.1 NONHSAT256322.1 NONHSAT258860.1 NONHSAT248212.1 NONHSAT035908.2 NONHSAT079577.2 NONHSAT090482.2 NONHSAT040800.2 NONHSAT156830.1 ENSG00000236345.3 NONHSAT244033.1 ENSG00000282164.4 NONHSAT098402.2 NONHSAT238541.1 NONHSAT256305.1 ENSG00000234584.1 NONHSAT011164.2 NONHSAT226295.1 NONHSAT113833.2 NONHSAT221964.1 ENSG00000253851.1 NONHSAT078574.2 NONHSAT036879.2 NONHSAT163206.1 ENSG00000223393.2 NONHSAT073790.2 NONHSAT238632.1 NONHSAT158063.1 NONHSAT163520.1 NONHSAT015072.2 NONHSAT054679.2 NONHSAT037859.2 NONHSAT046580.2 NONHSAT126702.2 NONHSAT229145.1 NONHSAT167268.1 NONHSAT169489.1 ENSG00000235366.3 NONHSAT080220.2 NONHSAT183517.1 NONHSAT183285.1 NONHSAT087557.2 ENSG00000226053.1 NONHSAT199928.1 NONHSAT091187.2 NONHSAT223507.1 NONHSAT023192.2 NONHSAT184658.1 NONHSAT124533.2 NONHSAT010131.2 NONHSAT030316.2 NONHSAT247849.1 NONHSAT248791.1 NONHSAT184033.1 NONHSAT229038.1 NONHSAT091306.2 ENSG00000290036.1 NONHSAT247008.1 NONHSAT257749.1 NONHSAT251569.1 NONHSAT191089.1 NONHSAT099489.2 NONHSAT081154.2 NONHSAT060162.2 NONHSAT072802.2 NONHSAT148710.1 ENSG00000279118.1 NONHSAT156634.1 ENSG00000263342.1 NONHSAT221092.1 NONHSAT016928.2 NONHSAT202789.1 NONHSAT018059.2 ENSG00000291070.1 NONHSAT156832.1 NONHSAT014141.2 NONHSAT015757.2 NONHSAT182234.1 ENSG00000275327.1 NONHSAT193350.1 NONHSAT194575.1 NONHSAT015061.2 NONHSAT005405.2 ENSG00000231948.2 NONHSAT101632.2 NONHSAT228401.1 NONHSAT158730.1 NONHSAT046582.2 NONHSAT037832.2 NONHSAT193247.1 NONHSAT114712.2 NONHSAT149152.1 NONHSAT154986.1 NONHSAT097835.2 NONHSAT088456.2 NONHSAT131578.2 ENSG00000235005.1 ENSG00000267272.5 NONHSAT251852.1 NONHSAT136111.2 NONHSAT155431.1 NONHSAT157117.1 NONHSAT126488.2 NONHSAT157522.1 NONHSAT257746.1 NONHSAT194349.1 NONHSAT179491.1 NONHSAT082405.2 NONHSAT005074.2 ENSG00000250986.1 NONHSAT232377.1 NONHSAT077053.2 ENSG00000289530.1 NONHSAT114788.2 ENSG00000286367.1 NONHSAT248655.1 NONHSAT045104.2 NONHSAT238942.1 NONHSAT246680.1 NONHSAT126853.2 NONHSAT008975.2 NONHSAT194503.1 NONHSAT122024.2 ENSG00000266908.2 NONHSAT018122.2 NONHSAT248046.1 NONHSAT139098.2 NONHSAT074825.2 NONHSAT201867.1 NONHSAT172454.1 NONHSAT247372.1 NONHSAT221184.1 NONHSAT214170.1 NONHSAT016526.2 NONHSAT127610.2 NONHSAT059559.2 ENSG00000269600.2 NONHSAT216360.1 NONHSAT151875.1 NONHSAT249630.1 NONHSAT047028.2 ENSG00000240476.1 ENSG00000233387.3 ENSG00000225914.5 NONHSAT230031.1 ENSG00000272298.1 NONHSAT144344.2 NONHSAT168319.1 NONHSAT257256.1 NONHSAT192806.1 ENSG00000224177.8 NONHSAT196497.1 NONHSAT219100.1 NONHSAT200709.1 NONHSAT075982.2 NONHSAT088349.2 NONHSAT186236.1 NONHSAT233132.1 NONHSAT185432.1 NONHSAT023501.2 NONHSAT128241.2 NONHSAT115030.2 NONHSAT246682.1 NONHSAT070240.2 ENSG00000286748.1 NONHSAT230878.1 NONHSAT131580.2 NONHSAT106516.2 NONHSAT003864.2 NONHSAT246325.1 NONHSAT169384.1 NONHSAT203873.1 NONHSAT177074.1 NONHSAT178438.1 NONHSAT199498.1 ENSG00000264301.1 NONHSAT231789.1 NONHSAT127110.2 NONHSAT047898.2 ENSG00000228353.1 NONHSAT236822.1 NONHSAT179769.1 NONHSAT236450.1 NONHSAT201194.1 NONHSAT104912.2 ENSG00000236255.2 NONHSAT165494.1 NONHSAT233718.1 ENSG00000285831.1 NONHSAT242905.1 ENSG00000272627.1 NONHSAT235262.1 NONHSAT029570.2 NONHSAT169631.1 NONHSAT051890.2 NONHSAT226937.1 ENSG00000255129.7 ENSG00000286915.1 NONHSAT125039.2 NONHSAT131649.2 NONHSAT023893.2 NONHSAT204587.1 ENSG00000279204.1 NONHSAT090882.2 ENSG00000223826.1 ENSG00000235530.7 NONHSAT008768.2 NONHSAT199943.1 NONHSAT004630.2 NONHSAT198958.1 NONHSAT009653.2 NONHSAT144502.2 NONHSAT228708.1 NONHSAT185163.1 NONHSAT088810.2 ENSG00000286380.3 NONHSAT007800.2 NONHSAT219953.1 NONHSAT229403.1 NONHSAT248218.1 ENSG00000272542.1 NONHSAT228694.1 NONHSAT213098.1 NONHSAT219938.1 NONHSAT192145.1 NONHSAT157682.1 NONHSAT224967.1 NONHSAT219901.1 ENSG00000259242.2 NONHSAT171862.1 Enh179022 Ens155702 Enh145338 Ens009566 Enh015005 Enh117241 Ens214728 Fan053285 Enh108722 Ens256040 Ens262206 Enh007829 Enh078652 Ens235273 Enh036525 Ens166216 Enh137435 Fan052101 Ens001844 Ens014845 Enh076742 Enh018040 Ens006961 Ens240465 Ens187628 Enh136168 Ens202930 Enh045392 Enh110183 Enh148165 Ens045813 Enh030401 Ens098838 Ens033821 Enh115363 Enh120366 Ens141634 Enh159633 Enh065510 Enh086730 Ens003114 Ens205604 Enh049130 Ens023606 Enh027150 Enh029142 Ens045070 Enh092134 Enh086728 Enh093107 Fan000976 Enh156123 Fan008987 Fan034394 Enh126680 Ens117049 Fan017211 Enh124827 Ens128663 Ens119568 Enh165149 Enh126780 Enh070868 Ens087297 Enh049937 Ens083774 Enh072891 Ens029932 Ens261174 Fan060010 Fan032444 Fan028515 Ens264064 Enh060981 Fan024486 Enh039159 Ens139078 Ens207900 Enh039257 Enh187000 Ens262396 Ens164011 Enh164624 Ens063699 Ens151727 Fan058172 Enh110591 Ens016392 Enh153016 Enh115974 Fan024488 Enh106743 Ens173594 Enh173274 Fan050065 Enh139860 Enh015264 Enh016947 Ens222476 Enh012771 Ens010811 Ens244561 Enh041504 Enh094373 Enh145947 Fan054904 Ens198134 Fan061240 Ens117573 Ens089896 Fan041385 Enh169288 Enh118959 Ens024529 Fan022808 Ens029058 Fan059685 Ens149777 Ens061587 Enh125387 Ens019284 Enh134948 Enh106741 Ens065331 Ens243985 Ens165808 Ens019067 Fan058179 Ens015065 Enh079164 Enh155987 Ens152655 Enh014990 Enh058597 Enh027009 Enh000303 Ens140301 Enh015253 Ens227252 Enh053661 Ens138255 Ens060227 Enh097186 Enh016310 Ens137632 Ens110989 Enh045391 Enh156726 Enh055218 Ens255684 Enh015002 Enh168687 Fan003609 Ens223489 Enh092417 Ens040580 Enh096411 Enh183137 Ens014374 Enh050644 Enh115985 Ens222625 Enh060903 Fan000065 Fan010102 Enh085927 Enh080683 Ens158733 Enh104864 Fan050174 Ens189454 Fan033459 Ens023141 Enh155572 Ens121102 Enh110237 Enh076569 Enh072788 Enh120140 Ens086073 Enh062777 Enh015004 Enh168177 Fan023872 Enh093104 Enh060902 Ens153994 Enh093106 Ens088361 Enh146010 Ens201973 Enh105458 Enh138925 Ens015042 Ens183655 Enh174972 Ens047740 Ens131596 Enh168696 Enh124691 Enh041499 Ens097939 Enh107062 Enh187322 Ens084634 Enh139950 Fan028628 Enh088921 Ens120500 Enh008751 Enh025485 Fan016397 Ens147428 Enh081568 Ens048999 Ens120504 Enh066390 Ens034276 Ens257461 Fan052256 Ens262607 Ens126622 Enh187151 Enh106736 Enh021693 Ens110800 Enh016311 Ens106165 Enh132400 Ens135300 Ens201286 Enh048440 Enh016196 Ens147950 Enh174026 Enh039320 Fan048907 Ens248946 Ens127746 Fan050124 Fan001087 Ens095806 Enh086036 Enh015013 Ens098377 Enh146850 Ens155024 Ens171448 Ens007106 Ens241691 Enh132503 Enh150323 Ens218194 Ens071190 Ens079672 Enh060904 Ens123977 Ens118139 Fan057231 Ens225269 Ens116770 Enh151525 Ens143902 Enh063209 Ens024588 Fan022812 Ens122249 Enh056377 Enh079608 Enh115984 Enh106742 Ens083637 Ens258324 Ens003430 Enh117240 Enh092841 Enh018037 Enh136323 Enh139880 Enh062041 Enh129394 Enh050366 Enh071416 Enh187150 Ens100131 Ens212159 Enh150324 Fan039465 Ens178304 Ens230213 Ens105961 Ens006907 Ens085304 Fan028520 Enh162597 Enh187333 Enh085137 Fan011341 Enh025252 Fan001711 Ens186404 Ens106534 Ens043253 Enh139951 Enh167820 Enh010172 Enh165251 Enh014972 Ens037485 Enh168469 Enh072782 Enh050367 Ens082615 Ens266731 Ens035683 Enh016547 Ens108226 Ens011219 Ens115817 Ens228234 Ens026408 Enh008991 Enh100539 Enh168695 Fan025007 Fan028226 Enh170781 Ens213741 Enh034241 Ens185345 Ens125510 Ens077237 Ens119475 Enh020077 Ens212937 Enh106698 Enh133093 Fan028513 Enh060899 Ens169082 Enh014277 Ens111287 Enh097512 Enh120368 Enh138241 Ens121417 Enh059842 Ens027662 Ens247934 Enh147753 Enh015010 Ens226810 Enh028515 Ens054642 Enh115411 Enh136516 Enh038670 Ens182748 Ens264485 Enh139884 Ens022288 Enh016980 Ens043325 Enh135410 Ens240579 Fan014905 Ens248887 Enh022337 Ens233389 Ens077107 Ens267659 Enh014960 Ens061673 Enh092343 Fan058173 Enh100111 Enh098063 Ens074307 Ens229984 Enh027891 Ens020139 Ens264088 Ens008231 Ens030099 Enh117644 Fan014369 Ens096823 Enh146853 Ens265190 Fan051141 Fan028519 Enh122233 Ens253438 Enh119115 Ens224197 Ens247754 Ens068941 Enh115973 Enh070857 Enh000711 Ens105105 Ens173189 Enh025272 Enh048706 Ens198329 Fan044697 Ens090392 Ens245656 Enh123393 Enh132308 Enh119910 Enh051085 Ens221467 Enh042040 Enh037926 Fan005312 Ens011509 Ens255151 Ens230643 Enh048156 Fan011361 Ens113205 Enh012816 Ens264116 Enh166817 Ens244898 Fan046822 Enh108126 Fan053892 Fan016585 Ens078576 Ens266066 Enh132419 Fan043152 Fan062497 Enh026388 Enh043123 Enh168697 Enh076746 Ens170763 Fan038501 Enh016541 Enh145946 Enh041546 Enh155718 Enh146848 Ens217898 Enh125732 Ens128496 Ens179807 Enh145907 Ens233000 Ens069950 Ens047619 Fan053955 Ens042654 Ens201472
feature_infos=[-0.55163268300000001:29.848324084688201] [-0.96346571000000003:7.7902072283024104] [-1.5269426859999999:6.4840695001158704] [-0.72712677100000001:8.3133346089209006] [-0.72551128899999995:11.8331941093262] [-0.56185467899999997:15.2241348186189] [-0.80628235400000003:7.6793563407747696] [-1.6406286160000001:4.5186301421427899] [-0.94237528800000003:5.6457977794175802] [-2.5832506959999999:4.4561808914533296] [-0.71869090800000002:9.9555535062500997] [-0.52925745199999996:12.098936209120399] [-0.953450609:6.4826505316630696] [-2.2730022330000001:5.1195736709269699] [-2.6137232959999999:7.0354310305532497] [-0.48460827099999998:15.518364725071001] [-0.65873927799999998:10.719410445982501] [-0.52333104799999997:9.5510718886820705] [-2.8633646700000002:5.7176092402372003] [-0.734141355:8.5691094279070601] [-1.2603421909999999:5.3587662982231903] [-1.2373278990000001:11.1922005883495] [-0.58299267700000001:7.0678212830648803] [-0.57012299499999997:15.882166369967999] [-1.112410109:5.4324903167306697] [-0.64822514600000003:12.351572208576499] [-0.58605935099999995:15.4064588084306] [-0.60915426500000003:9.4328982651574798] [-0.58486015000000002:13.7328475997847] [-0.80604693500000002:6.8474513963422901] [-0.745694474:11.4628751004387] [-2.4105758690000001:4.3039234620524098] [-1.349145112:5.7212560592727701] [-0.50900959700000004:12.457908680828201] [-0.623167056:13.0866267796315] [-0.90197263800000005:7.49317071002252] [-0.64940518599999997:9.8658031755854108] [-0.68218997299999995:10.166347950940301] [-1.384568107:5.6961862419999996] [-1.3142460629999999:7.8627900101469796] [-1.125127437:7.8281040004549496] [-2.0082546140000002:10.385203193602999] [-0.72656580400000004:13.5410539485739] [-0.52113881900000003:11.527223156598801] [-0.81685478499999997:7.2197978378738599] [-1.240589001:5.5340700422168601] [-0.68971079400000002:26.652445619773999] [-1.199067678:7.2768061790705598] [-1.227672103:4.7045343731718896] [-0.63783877200000005:16.849461493397801] [-0.57650691700000001:12.0447240783223] [-1.279991852:6.61258264353848] [-0.80683369299999996:8.2494446551571592] [-0.68776685599999998:12.592262353718199] [-0.62253152:14.1473488861752] [-0.64434253399999997:12.428415234790201] [-0.99778647600000003:9.20701590810841] [-1.327643677:5.8303481279143803] [-2.2030733109999998:5.1550011135975096] [-0.75089112899999999:11.747949743398401] [-1.6414304740000001:4.1279261526638003] [-0.47770208400000003:9.4712359343546808] [-2.2174857320000001:4.01623610401571] [-0.64501105000000003:18.376667562199302] [-0.50280829900000001:9.9162395693093703] [-0.42315299299999998:18.184282903569802] [-1.20386638:5.3810164412817301] [-0.53462836800000002:11.277424752454399] [-0.83954604499999996:6.7858989607445697] [-1.0410823819999999:4.1098953879570601] [-0.53833452800000003:8.4834738628435193] [-0.33627417500000001:25.6032991925277] [-0.53882835200000001:11.661604629585099] [-0.96541291200000001:8.6490555587255393] [-0.81813455800000001:7.2231364018955899] [-1.261481512:7.1774038584164499] [-1.8968066610000001:4.1045511918083397] [-0.53700511200000001:21.111399723984] [-0.57055375600000002:12.588073929814] [-0.38481187900000002:24.3448866709962] [-0.63099804500000001:11.340330971553] [-1.0232489709999999:4.7355635858762897] [-0.70858011600000004:8.1548056430620903] [-0.67549784199999996:13.6196081033184] [-0.63194105300000003:14.0536005484519] [-0.52475768899999997:11.768669518008799] [-0.51512046099999997:19.7643717472594] [-0.54036081499999999:21.643688252903601] [-1.8521756789999999:4.3163453315837401] [-0.558870435:12.435115914033499] [-0.87798613800000003:7.0826119135967502] [-0.63997244900000005:7.42579835551114] [-0.86150892899999998:6.49433887251329] [-0.72965287999999995:6.4178655539823302] [-0.72129471999999994:10.5483425896984] [-1.5904050729999999:10.2387416579964] [-1.045149069:7.5110055534053899] [-0.596093435:10.347970994367] [-0.36839872800000001:37.296896851409002] [-2.4082771329999999:4.4519527924051099] [-1.579628609:8.0692434615426798] [-0.59611030399999998:12.315988713038999] [-0.65092204399999998:6.0389555324726096] [-1.26345547:5.8287542961249601] [-0.84654063400000001:6.1013115212563296] [-3.636331357:5.1421531473301298] [-0.56916551400000004:15.8755648316384] [-1.779642731:6.1321314431033098] [-0.86011326099999996:11.117799701720999] [-0.70383987400000003:11.136812386059299] [-1.5007691599999999:4.3783567904669702] [-0.48520922500000002:11.6334732868466] [-0.68019466500000003:8.70833902745572] [-1.640573397:3.73838571628424] [-0.85096942200000003:6.9396261013882103] [-0.50660269700000005:12.6348732979588] [-1.0305386729999999:7.2337651178364899] [-0.61636859399999999:9.7620354418866704] [-0.88673727499999999:8.5897426115347297] [-0.70844893900000006:8.0757451623643099] [-0.56436702599999999:19.621337876927502] [-1.8424976740000001:5.8549610705652899] [-0.73626582799999996:10.363708181231599] [-0.51536164600000001:10.633656284531099] [-0.67068470099999999:13.364484707256] [-1.175071325:7.5853400154127097] [-0.52518751200000002:31.6553758322775] [-0.80143115200000004:5.5219539265245903] [-0.61991473600000002:10.8214931550984] [-0.81653369600000003:7.0653844050744299] [-0.444420437:22.324796125980502] [-0.662226278:11.9096415951533] [-0.55702221500000004:15.866322324172501] [-0.73579549799999999:12.8820356160833] [-0.92221287900000004:6.7304979301513699] [-2.2897361510000001:5.1566010375411802] [-0.71123130499999998:8.7507719262106107] [-0.56350835099999996:10.3185045128568] [-0.61409389700000006:10.8480425873118] [-0.72230376900000004:22.498878932553499] [-0.85982840299999996:7.3373792810584897] [-1.8657723939999999:5.91441963119098] [-0.58936949100000002:8.4534621229919704] [-0.66977873700000001:7.63446381138737] [-0.47076417300000001:18.946155712960401] [-0.93827270900000004:6.9517139459874402] [-1.3235306010000001:7.6899591814231298] [-0.67219194100000002:8.7747256381828507] [-0.89404465200000005:6.7846575374244198] [-0.99903800499999995:7.8655762764577704] [-0.73701357099999998:11.310451805763501] [-0.55829991700000003:10.5363358730886] [-0.77984607299999997:7.2825215163089796] [-0.82967846099999998:12.9195555556612] [-0.90476429800000002:7.0389847905978202] [-0.81710411299999997:7.56686705945945] [-0.77133021000000002:9.7877373853785397] [-0.64864432500000002:6.3845775166274699] [-0.59554226399999999:13.8338731598683] [-0.73257444100000002:13.9378635965346] [-2.7569226489999998:4.5115172171934503] [-0.68235436199999999:9.3701670955948] [-0.63241727199999997:10.350270890990901] [-2.268869875:14.0137019107589] [-1.5031633259999999:5.4788296883207197] [-0.65200722499999997:12.485235250015799] [-1.2148743870000001:6.72339981628049] [-1.1813599610000001:8.2802972753177499] [-0.87042731600000001:6.6995481778172596] [-0.486407376:13.387234363409] [-1.2225993959999999:5.23093394261734] [-0.54362879799999997:14.1873972727983] [-0.73758606699999996:8.3641738384672806] [-0.49392374999999999:18.226155297488699] [-0.69059960300000001:9.4240081299954905] [-0.73238204399999995:12.307548889458999] [-0.69343631900000002:12.798639209596599] [-0.62922608499999999:17.078346628122102] [-0.71478729699999999:11.2696913823508] [-0.68982745000000001:6.59150570105803] [-0.75154737199999999:9.3346470497763097] [-0.48123952800000003:17.275314705892299] [-0.64502694400000005:22.990497526240599] [-0.84785873499999997:7.2213525196425001] [-0.65426961299999997:7.4530783444300601] [-1.090811024:8.4927079906032095] [-0.81876233600000003:6.7563563948783303] [-0.53378220600000004:14.184771877826] [-0.58460324100000005:13.140036760122401] [-0.56282632899999996:18.0423762697624] [-0.89611671000000004:7.02059586707803] [-1.688598499:5.5524662282654704] [-0.50582373700000005:25.0697379775259] [-1.1381758399999999:5.5748305996778997] [-1.854344824:6.1051547298293496] [-2.4452995350000002:4.17393321549938] [-0.76848962899999995:9.4184738681403601] [-0.61061035299999999:11.5142357442815] [-0.65023767399999999:17.1260495269226] [-0.55506885399999994:13.5869246037682] [-1.1438766840000001:6.5139881672603703] [-0.80741692099999995:8.0068717706996608] [-0.57033712800000003:13.624474145704401] [-0.42772831100000003:12.540863693852] [-0.50094959900000002:14.9968900488805] [-1.860758672:5.2458722303307201] [-1.619121104:6.0262013262800496] [-1.0011596009999999:5.0690310983904796] [-0.89058663500000002:7.0512590630088301] [-0.56795067799999999:7.6899508715481799] [-2.8599410550000002:6.4870390132537397] [-1.2271312320000001:6.6060323726182499] [-1.9798480030000001:5.9444669693368404] [-0.54836537799999996:18.347528437863001] [-0.99643879499999999:7.2744861453019896] [-0.979127046:6.38126523187616] [-0.51776285:11.775111325642801] [-0.93567444799999999:6.0595998752246096] [-0.49855926299999997:12.8566279174286] [-0.73902955999999997:4.9323765452900199] [-0.67337703800000004:12.2499784040099] [-2.847992042:4.5807402542900801] [-0.63105307700000002:8.6867350447952294] [-0.888724348:4.8658086993649698] [-1.226887635:6.2765009043551201] [-0.74877608500000004:17.017957241507101] [-0.79641625999999999:9.6438092192424207] [-0.84240428300000003:10.7340200775777] [-0.463291591:22.148370819913001] [-0.570715317:11.293220570507399] [-0.65349915300000005:8.4584026911854906] [-0.77180065399999997:7.9810196519232104] [-0.76145057599999999:10.6707177669825] [-1.132463591:5.7195802657346198] [-0.63349622500000002:9.9033454669643906] [-1.3746611909999999:6.8631035970275596] [-0.53155088800000005:11.5937065673189] [-0.84055090300000002:10.232869251161301] [-2.134274338:5.8546224778802003] [-0.66673530299999995:6.3546775198705703] [-0.64807327199999998:7.7338137308352] [-0.73250967099999997:8.2994191752652107] [-0.59392551100000002:10.8384806619756] [-0.90626330899999996:8.5091084514199107] [-0.88074319300000004:10.2490818066355] [-0.89603473499999997:11.884017678748901] [-0.456801921:30.973122522554501] [-0.52183314000000003:11.729816333825401] [-0.72371419400000003:9.1190008183525499] [-1.4134872700000001:20.4931450695161] [-0.917770584:8.6938864218336001] [-0.68913434900000003:12.2726540083616] [-1.479434012:6.6431646329828302] [-1.016363178:8.9730248011707108] [-0.58239694900000005:9.5474216034841692] [-0.64441882699999997:6.79401428689191] [-1.5900673750000001:4.6221024452450301] [-0.79487671999999998:9.1323074071798693] [-0.654372654:10.685861699897] [-0.67311942999999996:8.2868011934138099] [-1.0431804819999999:7.0655920026075396] [-1.1142035320000001:6.0988358138678196] [-0.63787247899999999:8.0017607271090707] [-0.63746095000000003:6.6586061913766601] [-0.90481939:15.352797463958201] [-0.82156913200000004:8.4116766564666108] [-0.494152537:14.304242682093101] [-1.239388854:5.6809319950501997] [-0.79490228699999999:10.4281764373532] [-1.87994807:8.7390602315023695] [-1.7676939759999999:5.1521555046143499] [-0.684346334:7.7464216655672598] [-0.67999695599999999:7.8167684332544001] [-0.65365379199999996:15.828540584977] [-0.40491574800000002:15.682676561267501] [-0.64100841399999997:9.7208536542950803] [-0.64698632199999995:7.1329046833887997] [-0.45029138000000002:21.058641523533002] [-0.47069949300000002:14.7344885135712] [-0.66468109200000003:13.294220310506599] [-1.125164141:8.3782618961530098] [-0.67291001299999997:9.9338592624606594] [-1.463065668:4.5681459988094897] [-0.82410575799999997:11.779128714140899] [-0.57587400499999997:16.077720768475899] [-0.79305157999999998:8.5648018273865301] [-0.84915655499999998:7.8110358504445099] [-0.50443064599999998:18.845023008356801] [-0.71827541900000003:12.3382706574873] [-0.74196060699999999:9.9045504173231809] [-0.54136927099999999:11.674634303815299] [-0.83348054199999999:6.4267323704012798] [-2.4366155969999999:4.5918171695178103] [-0.73938394100000004:5.2819194836887604] [-1.126225684:5.69268693731419] [-0.56549829699999998:8.6050916952752203] [-0.67641414300000002:15.403318122254801] [-0.46882732199999999:11.1405760502457] [-2.1357914029999998:4.5719644884802797] [-0.947907371:16.530547390258299] [-0.61413591899999997:17.901480700695799] [-0.84377886700000004:7.3711313001644099] [-0.47005730200000001:12.595435113303701] [-0.56170477600000002:12.5450151804618] [-0.52427749199999996:17.638984900328801] [-1.1043177150000001:4.3929835494358001] [-0.58681131200000003:18.4505652948442] [-0.76769025999999996:8.1815189732578908] [-0.51473397300000001:12.980798777825299] [-0.89703233299999996:4.6360571391519798] [-1.60044187:4.6561784225485896] [-1.1756316469999999:8.7251371424219606] [-0.66929355099999999:9.7575675126757506] [-0.87620133200000005:4.8894324840272896] [-0.95130120100000004:7.2098267343982503] [-0.34070532399999998:26.156493726449199] [-0.62423600999999995:8.6968372654071402] [-0.60113949600000005:8.5179213098126993] [-0.817154775:6.5576868253467397] [-0.361596272:40.457025567259301] [-0.70998131399999997:10.250780943553] [-1.5344240069999999:5.2594311560692599] [-0.71591125600000005:8.0816049690859302] [-0.57051468400000005:10.061307709329601] [-0.67128171599999997:11.4189714195359] [-0.41557651099999998:12.2842900091561] [-0.58605639099999995:29.977515516218201] [-2.3162456910000002:11.8957467937259] [-2.4242765990000001:4.5424195167789296] [-0.87212450100000005:12.412072611436299] [-1.1654126520000001:6.7940435106480699] [-0.64979470299999997:7.6421816367148399] [-0.73811170199999998:9.5292781471054209] [-2.6402606959999999:4.1212977664947701] [-0.84973969100000002:10.1053372800886] [-0.86046640200000002:5.5537295400303304] [-0.62023561500000002:9.3166981948099199] [-1.244657229:5.11075904119153] [-0.85281287500000003:7.7868576549340904] [-0.70013268200000001:5.9561556788333698] [-0.80717025899999995:5.8574544146800402] [-0.63486107899999999:13.8253133363883] [-2.1240156790000002:5.1557980641401002] [-1.2311848409999999:9.7803107263128108] [-0.99898453399999998:6.4120438359815601] [-1.4581872490000001:4.8154560123345602] [-0.46084615800000001:14.0655747618601] [-0.95788498499999997:9.0255672637228006] [-0.60048646500000002:10.3767412493228] [-1.2623852929999999:6.1626807837748601] [-0.65938091200000004:11.9079617724601] [-0.70274682200000005:10.123667476986601] [-0.44914268000000002:19.0912475818036] [-0.54377414400000001:15.455170748899601] [-0.36808860900000001:18.877686890318301] [-0.988806513:7.0055751214513604] [-1.5029755920000001:4.9780626281213802] [-1.984735602:5.7572152894300501] [-0.61924084300000004:6.3029507928604396] [-0.47357926500000003:17.430305780557799] [-0.71615986700000001:13.5944120289015] [-1.0003722289999999:6.5968434675838798] [-1.050794199:9.2778212057536908] [-0.750729808:8.0489312760175107] [-1.0571147030000001:7.1035759227290596] [-0.84469386599999996:6.8815560880878799] [-0.570333011:14.482407058410899] [-0.91080208299999998:5.2291264631676597] [-1.9775170630000001:4.4911470321914297] [-0.76353004999999996:7.22255858383914] [-0.61946389099999999:11.2908191763998] [-0.82208058799999995:8.1524681807881905] [-0.58182151900000001:18.057846137999601] [-0.68274693600000003:11.561907624577101] [-0.39053849899999998:23.064681864385101] [-1.2430451499999999:6.2628579682128596] [-0.80773982899999996:7.1931201757607601] [-0.56791271200000004:9.9915625796105907] [-0.84486858300000001:15.4302371642457] [-0.70606090300000002:7.22571749319878] [-0.49287879899999998:19.37061447] [-0.68086564800000005:18.7819034356462] [-1.8719981640000001:5.9771814674786503] [-0.89575066999999997:11.6385300106465] [-0.64566415499999996:11.4501089486136] [-0.768890395:11.0791944673194] [-0.57289940399999995:13.6882092929396] [-0.92378073900000002:8.1977986905026707] [-0.65728335500000001:7.9296226394529503] [-0.65394705099999995:10.841288785387301] [-1.4904678680000001:5.0648849516949896] [-0.50996756799999998:18.232169781761399] [-1.218665082:4.5550039031098803] [-0.77748335599999996:22.1580119892404] [-0.761495743:7.8642191236505203] [-0.58887619199999996:10.1554302436241] [-0.63929151299999998:8.7477202103066993] [-0.57880791200000004:23.2975499520808] [-1.0435073130000001:11.852040461122799] [-0.493221723:12.785713362524101] [-1.3733993069999999:4.2048848395987601] [-0.88581942199999997:8.3148223501622809] [-0.64574603399999997:8.2575996606072994] [-1.4124075119999999:12.0294354296857] [-0.64178343199999999:17.635919919200902] [-0.72238287000000001:10.919884977913799] [-0.78729629099999998:10.367036324115899] [-0.79622529600000003:5.3406614897218203] [-0.91092508000000005:6.2502792764035897] [-2.683232609:5.4524640673364599] [-0.68913117800000001:11.851766653474799] [-0.89276196500000005:8.4951463505993008] [-0.53915928800000001:9.5659852458703796] [-0.61429558299999998:10.932743840182599] [-1.4233877669999999:3.7477693144967499] [-0.61522121900000004:17.349364108106801] [-1.158270951:6.0782604304729198] [-0.52997308899999995:10.8648650478763] [-0.96855436399999995:7.3596295632039697] [-0.59646571100000001:12.560279668221099] [-0.35282330699999997:27.996880670801399] [-0.65921907700000004:9.4210925153879206] [-0.54612342300000005:14.011234020668301] [-2.274639869:5.4738200203503604] [-0.99138566500000003:6.2311695283008603] [-0.68944913699999999:13.768576881967499] [-1.356926758:6.00456046215049] [-2.1445133049999998:6.2539590809593602] [-0.490754303:36.1620860398369] [-0.71080507100000001:10.0718309078689] [-0.62930108600000001:14.273997788349901] [-0.34144024899999997:21.8119107907943] [-0.65003430500000003:11.299427324048599] [-0.63512361900000003:12.8446347302975] [-0.89216805600000004:5.8004870289276704] [-3.1747350179999998:4.4731524004154002] [-0.42678852:22.345845655253601] [-0.79460017800000005:7.7220943193662803] [-2.5497048420000001:5.4247442150063598] [-0.894157969:6.5772610391675599] [-0.532485863:9.3851181389952298] [-2.3006631789999998:4.0820731017096197] [-0.75503331900000004:9.1134470980163105] [-0.66144088199999995:8.7933952685198893] [-0.82713062000000004:9.4335644815246091] [-1.0976397790000001:7.7170647406348296] [-0.88645317300000004:5.8783631409545896] [-0.49170920099999998:13.2115302615201] [-0.36072131099999999:16.297581224135602] [-0.79590268500000005:9.9531742489556798] [-0.46683879499999997:34.420529377835003] [-0.72771701899999996:8.5921006868957104] [-1.234895896:6.3836852449093104] [-0.42612770599999999:19.5801780939052] [-2.4944266590000002:6.7085420105826099] [-0.88273583499999997:21.1720299397651] [-0.49959298800000002:8.6626993899954101] [-0.62481414300000004:16.593821292862401] [-0.641602377:9.0422019120134003] [-0.685142484:9.1585990862710691] [-0.52301147999999997:10.024298969639499] [-2.1279121289999998:4.8622945644928901] [-0.65441701500000005:15.992989822083199] [-2.2485588970000001:4.7097473751560299] [-0.79751059400000002:8.3054809747982805] [-1.060291879:4.8478308663893896] [-0.58320284899999997:10.6338373619566] [-0.72703688300000002:12.982656505064501] [-0.57409310499999999:13.3452391119355] [-0.49943258800000001:10.2689447152512] [-0.95194235000000005:8.0435439010586993] [-0.80724659499999996:9.6484005058423996] [-0.61492722799999999:34.692316482560202] [-0.45142230300000002:23.791154405667299] [-0.55981293300000001:13.260563429857999] [-0.61749885800000004:16.0364062768891] [-0.72556616399999996:9.3512606711480295] [-0.60698178899999999:12.5342195095668] [-1.8232178560000001:6.5701165802925798] [-0.46672644600000002:16.150486124891199] [-1.076576854:5.1216665316073797] [-0.56969603999999996:16.691180530034199] [-0.68129160799999999:11.216649632940999] [-1.0801241420000001:12.4555995265347] [-0.81327391900000001:7.9376368749073603] [-1.631103599:4.8556541356437499] [-1.1204884239999999:12.0513101549311] [-0.642908378:11.368712533425899] [-0.65471062700000004:10.899057911377099] [-1.129084601:4.9247293955772102] [-1.0736459739999999:5.2553160875596099] [-0.48075956199999997:15.44799766] [-1.4664486990000001:6.1888840202048598] [-0.57628076299999997:7.86933504305299] [-2.7954613209999999:6.3571756866899802] [-0.70704381000000005:7.1180442811403397] [-0.68285660599999998:17.7686291072648] [-0.74179190399999995:9.9996011108218408] [-1.087944786:5.27698973616718] [-1.20089611:5.3562843512488696] [-0.95468122499999997:8.3434332645802201] [-2.5514112400000002:7.4369217198614397] [-0.56458264999999996:9.6428495312915494] [-0.602516677:20.505950218764301] [-2.574860755:4.6134707419339298] [-1.9872831500000001:4.5252815983652503] [-0.65931100200000003:13.2001741231184] [-0.505730495:18.5361145313035] [-0.72965329199999995:9.9804431182830804] [-0.85425445499999997:5.7112984502695703] [-0.77061208599999997:7.2838088573235096] [-0.77164711100000005:11.250226262351701] [-0.79021806299999997:12.262851979483999] [-0.45430101099999998:9.9630926655158092] [-0.63717437300000002:9.7405813634497402] [-0.72999711899999997:6.8382064309738402] [-0.82490926799999997:7.8520105778049496] [-2.2364821039999998:5.5043020102539701] [-1.432936231:4.7971520566606998] [-0.43873885299999998:15.633607422324401] [-0.68400247300000006:12.0791339820281] [-0.95611106599999995:6.0811768790264598] [-0.61813542700000002:13.449707546936301] [-0.62112117:13.5450999976481] [-0.77836340599999998:10.336071790463601] [-0.718271573:5.83627805678426] [-1.213759576:4.7012757265062799] [-1.2023545490000001:5.7227674308617296] [-0.68219271999999997:5.24647000793912] [-0.65542217599999997:7.0884766152955399] [-0.56616696899999996:17.2968313568194] [-0.95024687799999996:9.4066788396807901] [-0.54302279899999994:15.1583088364224] [-0.47125651200000002:15.7605234683934] [-0.96520271599999996:5.3210157460930398] [-0.51834505799999997:14.5087671280151] [-0.67197041999999996:12.2788780493369] [-0.89475787699999998:10.4976369355148] [-0.704776768:5.7779698355268199] [-0.60660324600000004:12.4672187903526] [-0.61261404600000002:14.417292237135999] [-0.94251911499999996:8.4726612246153099] [-0.98808238599999998:6.1511932566433698] [-2.1928360250000001:4.1225805052955904] [-1.3601293080000001:5.0010349705770496] [-0.58648475200000005:23.2286687984076] [-0.58632285299999998:14.091159401624999] [-0.37796570099999999:21.256662428542398] [-2.2903606509999999:5.2960461067481903] [-0.77187813500000002:9.8283356954824299] [-2.2649486630000002:5.6351699266923703] [-0.52438042299999998:13.369811246142399] [-2.3080623930000002:4.6352585145839802] [-1.4509090929999999:7.9315122843253203] [-0.64127848899999995:11.437142329802301] [-0.55259924400000004:9.1283446704071096] [-0.74088567800000005:9.3108122517356104] [-1.6318813160000001:6.2723383151918002] [-0.75236409299999996:9.1329732556412306] [-1.0158607639999999:6.1998618972129798] [-1.0200448719999999:5.0942140656630102] [-0.76854619899999999:11.8979264173714] [-2.0240809620000002:3.7534669010106398] [-0.85382361200000001:7.3825904244576304] [-0.95386143599999995:6.5269994207293802] [-1.0968394770000001:6.8436854485527503] [-1.5584583160000001:4.8038423537227599] [-0.76101903800000004:7.5541572667110799] [-0.42369038399999998:20.695655998570199] [-1.230815462:7.7515748182028297] [-2.8789684050000002:5.35120518978602] [-0.94221181399999998:4.5342163443359897] [-0.56031156999999998:11.571625360000001] [-1.023923232:5.9755225709683497] [-0.50390337699999999:21.966116317063499] [-0.485163393:14.2030334289033] [-1.5375238959999999:4.5936445045663303] [-0.70798766099999999:11.167885816830101] [-0.89291235099999999:5.74508109700737] [-1.7839207500000001:3.9368366412643501] [-1.1125221489999999:4.3269974212253404] [-0.59479180499999995:20.563288325715401] [-1.2723080499999999:4.8697160006657603] [-1.6879405160000001:15.3084917596476] [-0.56094080800000001:15.740772380122401] [-0.54497615200000005:17.144289062911] [-1.3017638220000001:9.1026276238017392] [-0.49899452:22.891674318230798] [-0.69449522299999999:12.7554668662466] [-0.56727102900000004:16.302176865383199] [-0.52308894399999994:8.8757616097753491] [-1.7704453060000001:5.1213115362653996] [-0.53984844300000001:11.4583253088809] [-0.89060604700000001:5.2301169833995704] [-0.550998035:9.4231931289792907] [-0.60145533600000001:9.1203120668487205] [-0.70369337899999995:11.419885950606901] [-0.88866052600000001:11.823798707930401] [-0.775572916:8.2516081358425204] [-0.91994746199999999:5.6085750545025101] [-0.63582101099999999:17.0115074703908] [-0.587627974:10.4615568019394] [-0.55047004899999996:11.7167516697221] [-0.70628963099999997:6.4098486946283799] [-0.98867483499999997:9.5554520548194795] [-0.98000704000000005:6.9622799640509596] [-0.66672359199999998:8.4910115045253605] [-0.99183276200000003:7.9075237505455602] [-1.368202865:6.6983152730399897] [-0.80780571099999998:10.2414033438394] [-1.0842042759999999:8.1873873059430693] [-0.51676208400000001:14.381249087272201] [-0.57855082000000002:10.212854362464601] [-0.637926722:12.0496660013753] [-0.40061411299999999:28.545043223225498] [-0.40337740300000002:10.439518354111399] [-1.5439196150000001:5.44960369117259] [-0.60319834999999999:9.1036185762910709] [-0.61035077199999999:14.9446596929054] [-0.54931912699999996:24.7306009176238] [-0.70113748099999995:13.458191746263999] [-1.2437962650000001:5.4645920822484602] [-1.012636863:4.9362277256257698] [-0.39725723099999999:17.039308227644302] [-1.4007365270000001:6.4607799315912304] [-0.88021907899999996:5.7774173623473102] [-0.72098923699999995:7.8244078319913299] [-0.82126186000000001:5.1155342501961503] [-0.59695558199999998:13.0697269922121] [-0.634269576:8.1886587204724695] [-0.675416562:11.858827967609599] [-0.47746123400000001:13.897960207810501] [-0.62769382399999996:11.397359138363999] [-0.49668787199999997:9.4271917874136104] [-0.53914449799999997:9.9464370083811904] [-1.012357395:6.3884495020687098] [-3.262630277:5.2017415826527396] [-0.84169731800000003:10.211075277826501] [-1.476177071:11.0208433515726] [-0.61779068400000003:15.4645787508206] [-2.235589644:5.0677784935540098] [-2.1171091880000001:5.7115960523937899] [-0.85999888800000002:6.8895618825873903] [-0.56215534499999997:10.539834194161701] [-0.63342852100000002:17.133319470581] [-0.74321000199999998:11.395622675730801] [-0.66901411600000005:8.6007452850909001] [-0.58225156:9.3444322507754993] [-1.7116322399999999:11.6498297084322] [-0.53503942900000001:9.1785571382721596] [-0.84107113499999997:8.5932592856791103] [-0.67214011600000001:14.5369460442744] [-2.205745828:5.3700289559677499] [-1.0288470460000001:8.2292297138391799] [-0.54961970199999999:13.5065058008056] [-0.67361429399999995:9.7921412327561992] [-0.59818608799999995:7.3950004654434203] [-1.6299152400000001:4.5288222070964403] [-2.284165357:4.8253588740780797] [-0.95320850800000001:6.0547227735442304] [-0.62764643499999995:10.5588912943689] [-0.61413531799999999:12.101835692765199] [-1.394896047:6.8560145832663002] [-1.1377794640000001:6.67427832338364] [-0.77424795400000002:11.473319586695199] [-0.51526434499999996:15.2875597190293] [-1.4895940780000001:5.03600132678213] [-0.90630859399999997:12.960966299310099] [-1.503109279:4.7718325291573098] [-0.67310482500000002:20.426301980062401] [-0.67569577400000003:9.9894108001460395] [-0.63099676800000004:12.548241714783099] [-1.661253667:6.1702812706299497] [-0.96900086399999996:8.8480640712123506] [-1.9769129030000001:5.43203764523399] [-0.90588440000000003:5.1002324752382604] [-1.50907612:5.31187692311057] [-0.831116046:7.5430655943213303] [-0.68121617599999995:10.8913987048559] [-0.49279725099999999:22.328623751197199] [-0.96391437400000002:7.1621285428393202] [-0.54661395499999998:19.1909587515932] [-2.7195598560000001:3.7958485784701201] [-0.52256343800000005:22.775141465502699] [-0.64634981700000005:13.3425082983174] [-0.56688276299999996:9.6242453845412292] [-0.68074393399999999:15.7589479340322] [-2.7913806110000001:4.6902031488163196] [-0.70782499600000004:7.2068642169215797] [-0.53660847:24.7253053213268] [-0.55453405499999997:10.794926878459499] [-0.54372548099999995:11.9053334301761] [-0.440900128:23.026321013774499] [-1.127433339:4.23884448046614] [-1.2040189530000001:6.0752013773727898] [-0.82083350600000005:5.3366274733975896] [-0.76346598200000004:7.2081131424357201] [-0.59660252400000002:8.7853689508419404] [-0.65171017600000003:16.838573050039699] [-0.85254508500000004:10.142280154623601] [-0.57268168900000005:11.5080261006686] [-0.73009260399999998:20.012766741198] [-1.056370139:11.5853556031197] [-0.78386513400000002:8.2336823895688198] [-0.82282769499999997:6.5559202203667004] [-1.382178989:5.1876528502009904] [-0.61797992999999996:16.143822452670399] [-0.82177054999999999:6.6438457069485102] [-0.60237775299999996:18.02228869] [-0.77639756599999998:9.4339433178343501] [-1.1999583819999999:8.2107455856991702] [-0.72420396499999995:9.6303342711137301] [-0.75949620900000003:6.1222899893356901] [-1.43990423:6.51806252461322] [-2.58863347:5.3828715043230302] [-0.40120962199999999:17.1723249811686] [-0.442983083:22.3721799156183] [-0.60101769599999999:11.6148668044681] [-0.73749205399999995:13.2014465329059] [-0.57146795699999997:21.049962992900401] [-0.99081524300000001:7.8181695997368799] [-1.291251835:10.722293154444699] [-0.639142396:12.869981482116099] [-1.367626271:5.01323241632626] [-0.66789774300000004:12.822343016895401] [-0.68442489900000003:6.5464003718617398] [-0.69185333999999998:6.5911664305761901] [-0.55097201299999998:13.5229250596787] [-0.93744001700000001:13.345723530438599] [-0.56620961800000003:11.739860416798599] [-0.85214389400000001:4.2426480437059197] [-0.63419234999999996:11.5691518411001] [-0.49201803900000002:17.511766602351202] [-0.58333851599999997:10.7943387764977] [-0.87209477899999999:10.672440590322701] [-0.91684533099999999:7.5339432999352702] [-0.692902515:9.4857671020216898] [-0.60516126599999998:15.4255488304871] [-0.51808169100000001:16.679890736236501] [-0.75072223800000004:22.549975004165201] [-1.0074367950000001:11.232649646208399] [-0.67316893:17.183033677818699] [-0.78438048299999996:11.4862965790327] [-0.81146790800000002:10.531434051816801] [-0.66639895000000005:6.6022422158123] [-0.81039381200000005:13.9007003177888] [-1.672077976:5.5393538413944396] [-0.69724032499999999:9.6125185539562903] [-0.75002897599999996:10.8007337722209] [-1.9370812310000001:5.7712683229829] [-0.98232593199999996:7.0697218351263302] [-1.6229625700000001:5.6122340944561104] [-2.586788495:5.3554111819735803] [-0.67291183600000004:12.8814418880918] [-0.96395493499999996:15.2114123242717] [-1.065269316:6.1789751771071204] [-0.434188617:14.5471010723845] [-0.69059753400000001:10.398895565122301] [-0.70262486700000004:15.3679865652083] [-0.72735398900000003:5.0292540874058904] [-1.103143338:8.7448185655601307] [-0.55818878999999999:24.286404436630701] [-0.36792734199999999:37.027671068340403] [-0.647920779:7.0181067617852699] [-0.73202853700000003:15.786131132327901] [-0.72829984800000003:8.5312216290548193] [-0.80615420400000004:7.4017803411188003] [-2.5215870119999999:4.6278597541605802] [-1.447850764:6.9297399263971204] [-0.56159173399999995:9.5810487602471195] [-0.47434100400000001:11.1779628009755] [-0.80396927500000004:12.937292429208] [-1.139208107:6.2051805874038104] [-0.412755121:11.536562255720799] [-0.51030509400000001:8.3710998715542893] [-1.1061272010000001:6.2394229810061397] [-0.82587355799999995:10.4364061946372] [-0.93354496600000003:19.112808122268198] [-0.66781073700000004:11.8643431097827] [-0.63802347699999995:7.8605553672030499] [-0.60051552900000005:12.2288370092331] [-1.832741151:5.4492922468808596] [-1.3623647430000001:5.7337162699801301] [-0.46167968799999998:16.5755773229745] [-0.653577819:16.987476290515598] [-0.86758383699999997:8.4658463308806304] [-0.552658922:10.1979495037069] [-1.087457474:8.6750857753686006] [-0.53224108199999998:24.443334799068602] [-0.71329792999999997:7.2776091712195798] [-0.76178218600000003:9.2661276383261804] [-0.93595863099999999:9.4617072754936302] [-0.72816340700000004:9.1928730973297696] [-0.64513191000000003:9.9087048741941892] [-0.62493808399999995:13.0264559380284] [-0.51839184500000002:26.509185413702401] [-0.52904885000000001:17.674331208404102] [-0.71745119300000004:8.1431661320802] [-0.74525000900000005:15.9199875482865] [-0.65261873400000003:8.4874840646758098] [-1.0758468489999999:7.3990981840856298] [-0.53710216399999999:19.3427535666948] [-1.080053081:6.1295251546587304] [-0.64673723699999996:11.599121201551799] [-1.101069385:8.8521013751242101] [-0.34636844500000002:19.5110656057814] [-0.73850668100000005:6.6386629634092902] [-0.57990162300000003:7.9710275868565201] [-1.477758589:4.2607959944859504] [-0.59176168399999995:12.464090174292499] [-0.542159854:19.877650514387302] [-0.93181971100000005:10.307785700261601] [-0.52205726900000005:13.4699293254259] [-1.1721345400000001:6.66006345980162] [-0.62538340800000003:12.019382140852001] [-0.53521978800000003:18.409474954398402] [-0.64575889600000003:11.448597491392601] [-0.53668597100000004:12.0579991304839] [-0.77476161899999996:11.616092165372701] [-0.79493659400000005:8.2206308307069609] [-0.74550684199999995:12.6626052942336] [-0.81760001199999999:6.2416874513169303] [-1.0530027710000001:5.6226145394799101] [-0.84767357300000001:8.3103622991016408] [-0.55245815899999995:17.1990476635006] [-1.160525853:5.68277633306643] [-0.63750869799999998:16.509663731337898] [-1.1220404470000001:10.6734852141552] [-0.61283096800000003:14.6245130877655] [-0.60338846800000001:25.454313160814099] [-0.56944658400000003:12.914987305258199] [-0.79223041900000002:7.7659683531816297] [-0.73147575099999995:7.1109847817618697] [-0.59872886999999997:8.8379934765311194] [-0.50096618299999995:11.1862056853121] [-0.56697993199999996:11.5878077357692] [-0.35595629200000001:19.6844042786757] [-0.81281555599999999:6.8846153348408397] [-1.0340712320000001:6.1823510969567002] [-0.544287717:13.192672352681299] [-0.93258997600000004:6.25705834123172] [-0.865853753:10.451115023912401] [-0.89158504900000002:12.794509587881] [-0.47118054199999998:13.789147380585501] [-0.565019991:17.635264969950601] [-0.73734365099999999:11.3325664104584] [-2.6191682379999999:4.0506865327859902] [-0.67825789599999997:15.4461219340052] [-0.62183081799999995:10.1433285657218] [-0.41893734100000002:14.4315428702731] [-1.593838031:7.6972141402343803] [-1.452599344:5.5024493461768396] [-0.40055536400000002:27.035184211389701] [-0.70089545399999997:14.463564676798701] [-3.159749632:4.13899557567043] [-2.7857603329999998:5.3699217763503198] [-0.82576717700000002:14.0309034524117] [-0.56185380500000004:15.193314166562599] [-0.62818244199999995:10.3751547804833] [-0.44821339100000002:16.4279839287897] [-0.83847687900000001:4.7716023950678501] [-0.52846450899999997:10.5049775243042] [-0.53639010499999995:11.3842059619395] [-0.63957456099999999:9.9059631929197494] [-0.51542536999999999:11.7396126446642] [-1.4188409129999999:7.0760052650491403] [-0.74169377000000003:9.1095163293720791] [-0.49428126300000003:12.876298548263501] [-1.5345775180000001:6.1068398235121499] [-0.46037760900000002:34.260804980683901] [-0.74090467500000001:8.8127674944713199] [-0.88801735000000004:8.5780230479196202] [-0.70272319699999997:8.1410592003387592] [-0.75973175699999995:7.7856456309109099] [-1.2316784110000001:6.7617390471287697] [-1.395520978:12.618567338016801] [-0.59057311099999998:12.400819728791699] [-0.84610832400000002:6.4312773232613001] [-0.86364487599999995:15.7687210824394] [-0.73559987299999996:10.253047952875001] [-1.837176803:6.2196482545774403] [-1.658608506:8.0233751030481102] [-0.71759708:6.1302704011923002] [-0.98224718600000005:7.8597840683262197] [-0.58827666000000001:21.909161603950999] [-2.7975438129999999:5.8783259150996203] [-2.057128514:4.6958553518414901] [-0.75778936699999999:6.8143476310000004] [-0.58217981900000004:13.881764986432101] [-0.79486330400000005:8.7003387456828296] [-0.64421724899999999:8.2278508137130899] [-2.0587526089999999:5.69052154649125] [-1.107261761:6.5860292380712] [-1.3829716460000001:5.9496496115102797] [-0.53984249600000001:9.6492691444340402] [-1.277485609:8.6834487757730798] [-0.61458763199999999:12.0742101904361] [-0.54041100200000003:10.791912791432599] [-0.66671841399999998:10.4989580382019] [-0.50446281500000001:11.3772191466549] [-0.70410674699999998:10.7268617492104] [-0.90262259700000003:6.3356341805954797] [-0.70191214400000002:6.8993760138831997] [-0.62197776100000002:9.7664750715252193] [-1.4423991229999999:4.3457175933700301] [-1.249957167:5.8371975860376297] [-0.80628608800000001:6.7328798938067997] [-1.587561153:5.2966028056176597] [-0.80393211799999997:7.8195376221898103] [-1.302002967:4.7334081746384804] [-0.52304757700000004:13.7985715336418] [-1.8556784390000001:4.6535048329117501] [-0.75209166199999999:11.180747429146001] [-0.43211959900000002:21.911804068967001] [-0.52400643800000002:18.104307713055402] [-0.37537083900000001:11.489831155179299] [-1.0907396199999999:5.8544404989423802] [-0.48435224399999999:11.354347192976601] [-0.74622686100000002:11.189588095978401] [-0.64563165700000003:14.825710360164701] [-0.56754516799999999:11.8097386987764] [-0.69105060399999996:7.7420488896355701] [-0.40594809599999998:10.949598550877999] [-0.46415123000000003:26.549140006920201] [-0.56132484699999996:13.718279282984801] [-0.76271303099999999:7.6876977991600102] [-1.0913525690000001:5.7112428752289199] [-0.51882525099999999:40.065820349523896] [-0.69723627099999996:11.073850683685301] [-1.0567846080000001:4.8436545453138802] [-0.93557697200000001:8.0535520061284807] [-2.3751168520000001:5.2758115773497796] [-0.364783845:27.3299246734455] [-0.84548950099999998:6.9892083838435699] [-0.57305731800000004:18.412662308555898] [-1.0473662960000001:9.8077387569250707] [-0.61672444299999996:12.8038526814112] [-0.63615085299999996:10.2673791437545] [-2.2222826090000001:5.6998940823721602] [-0.51820282200000001:13.959929624089501] [-0.69995927300000005:11.6993500433303] [-0.79499374899999997:9.7303327914412794] [-0.67264057700000002:10.231639983702999] [-0.62563747700000005:10.8096366530892] [-0.58046160400000002:15.947454099024] [-0.73795945399999996:29.448828476847599] [-1.2383286099999999:6.9204662880768204] [-0.52686846600000004:10.8549673825372] [-0.52861642600000003:17.764635944898401] [-0.740402385:8.47302358540942] [-0.63528939399999995:7.7598696980665798] [-0.98164823000000001:10.871331467229901] [-0.862149795:7.1284538883533202] [-1.154157895:7.3699620020471297] [-1.4551097719999999:18.9893419745333] [-0.40022569600000002:24.5382978242307] [-0.66978468300000005:22.225058361209499] [-0.59922067000000001:9.6227605531363203] [-0.56697412700000005:15.868563830930601] [-1.626022737:5.1556370093726702] [-0.59147936700000003:10.059895318392] [-0.79723839600000002:4.9333712369510501] [-0.58179312299999997:12.1651505191738] [-0.96725815400000004:11.598080534920401] [-0.97804716000000003:6.7961930400858401] [-1.252064563:5.71839577407719] [-0.71452274000000005:13.6638348515497] [-0.63946900799999995:22.993930528898002] [-0.48838673500000002:18.612888171697701] [-0.66844404499999999:11.9048535468939] [-0.67187738399999997:14.307840850358801] [-2.062757516:5.0544760144232903] [-0.99634528200000005:6.6819225912433202] [-0.45704401500000003:23.894416030930199] [-0.81804762399999997:5.8161804779288797] [-0.65385123999999994:13.6282170577031] [-0.56793921599999997:9.2917578647311601] [-2.1638952389999999:5.5039363828634098] [-0.86616634199999998:5.2408539929410498] [-1.2673417490000001:5.3099474377761604] [-0.84130335599999995:6.7608278521595704] [-0.71053484700000002:12.7905258470627] [-1.105809501:6.2675404114880502] [-0.577919238:10.920123119933301] [-0.83102984199999996:17.599884777725698] [-0.825012038:10.610639118521499] [-0.84470539700000002:6.54772730876181] [-0.78219450700000004:14.830831742707399] [-1.1705424120000001:6.7530041921800699] [-0.471402186:18.835298735161199] [-0.61103597799999998:14.8678282026132] [-0.45514567700000003:10.536125283660899] [-2.047668958:5.9459606709405701] [-0.53339716000000004:17.979485642981601] [-1.0444261539999999:7.2361577998979296] [-0.78333821199999998:26.286864474140799] [-1.7534085909999999:5.5700393068263798] [-1.8368968379999999:6.0041100538363397] [-0.59222979200000003:22.329987719858199] [-3.1244522840000002:7.6888867656319402] [-1.4710705770000001:6.8314030869774998] [-3.7967545980000001:5.78578912397899] [-0.57473272600000003:7.2845955652030803] [-0.41906682499999998:31.276414803557302] [-0.66121317899999998:20.521031603668298] [-0.86390996600000003:11.0172753081831] [-0.81422180099999997:7.2493626851086796] [-1.880789574:5.7773776878530798] [-1.409160215:6.7174448382262701] [-0.368667152:26.034832116495501] [-0.730102578:7.3570235345217503] [-0.69243505599999999:18.0028965740287] [-0.248221109:21.998741184643698] [-0.87400557499999998:12.4459980711206] [-0.74135857599999999:8.79272927283359] [-0.75298399599999999:10.0551139350226] [-0.63980256599999996:8.8482517590654908] [-0.36796647100000002:35.371446312816801] [-1.219057445:6.9423050454864503] [-1.508188039:7.4479740542341402] [-0.48027202699999999:24.140169282511] [-0.452007573:16.236690975837] [-1.774155999:6.3947251340347497] [-0.42501775600000002:14.313431324270301] [-0.75145842100000004:13.4439682174305] [-0.559294866:8.30422555223827] [-0.374961659:14.5649814448409] [-0.93475824500000004:6.5802432625317904] [-0.438194943:12.5730446724112] [-1.190949576:6.9032355886113201] [-0.50990069999999998:14.3432753283289] [-0.91934411999999999:7.6732723925016204] [-0.462084206:12.890364874076999] [-1.3435443119999999:6.5317634940824796] [-0.46847053999999999:25.703362035693001] [-0.51426611600000005:10.551298709284101] [-0.36631068999999999:16.115296711452999] [-0.82695518999999995:9.3897924604419796] [-0.68696476699999998:10.5239396500585] [-1.9403754849999999:16.933437501691898] [-0.656510174:8.8601073686490697] [-1.024455238:5.6918560722192604] [-1.570195035:5.6236739668390401] [-0.377286328:35.971150153307498] [-0.97584404800000002:16.519275789787599] [-0.633078158:10.0573771615674] [-0.74985282399999997:7.6734999086737901] [-0.65873555500000003:11.6756698313909] [-0.64725694199999995:9.1609563508056393] [-1.03867585:11.778267626364499] [-0.75287256499999999:9.4777221514493899] [-1.91791859:4.3119430954319098] [-0.57125800800000004:16.8738341946469] [-0.45388335000000002:17.006485493171098] [-0.83647448199999996:8.3235602147353909] [-0.57747533299999998:11.419909584581101] [-0.82465330800000003:11.854854559160501] [-0.62804339899999995:7.1602451203529798] [-0.61137610499999995:7.9095717516119297] [-1.242643441:6.1989996369967404] [-0.49889848999999997:11.2606857325371] [-1.3990342090000001:4.9156493349227199] [-1.450691688:4.7407903291723201] [-0.48998154900000002:12.5056164198782] [-0.748962766:8.3438696857239893] [-1.3254396129999999:4.6806846490397103] [-2.4524066069999999:4.6671845923503801] [-0.73150260099999997:11.4049737628761] [-0.88431828099999998:14.1394095706173] [-0.94876882100000004:7.1639355937218099] [-0.79037016999999998:9.5322411200392896] [-0.58093544200000002:10.313197863530601] [-0.45119730200000002:9.5403394910559793] [-0.748486816:12.4732033315347] [-0.695089823:12.020094743739] [-0.26504538799999999:24.355642424788201] [-0.47478180399999997:41.379058455412597] [-1.0074353760000001:7.30495465097645] [-1.0178279809999999:5.7362576340343399] [-1.0154109600000001:9.5198186868448502] [-0.58045828300000002:16.421572444418899] [-2.1379632540000002:6.81089963371398] [-0.801818107:7.8579157520260097] [-1.6011240099999999:5.2226537243481603] [-0.60570384200000005:10.7366659167731] [-0.49694581500000001:13.1659421758121] [-0.53854639900000001:9.5627465999348598] [-0.46118296199999997:17.941236505251201] [-2.8900898810000002:4.83099514317637] [-0.74548405200000001:13.0647527463352] [-1.5994479180000001:6.04456982054454] [-2.781407271:10.838201891879701] [-0.60462709800000003:7.7770410603874502] [-0.86402175199999998:7.8769102799099002] [-0.70967576399999999:9.3874061681920793] [-1.896881794:4.0503261108823896] [-1.03657763:20.152113899581501] [-1.355415638:6.3320330753187797] [-0.41437617799999998:15.389346748092899] [-0.55733341999999997:14.5036241134673] [-0.88001295099999999:7.4073837695617399] [-1.376231604:8.36992133883831] [-0.57229409499999995:11.879421207748701] [-0.43362877399999999:19.470533767576899] [-0.91049085600000002:7.0385718901406902] [-0.68263443700000004:13.668739686938601] [-1.3912923109999999:11.607125989572999] [-0.58851148499999995:7.78893264943859] [-0.82272187900000004:8.7043217527329393] [-0.60845877100000001:11.626141755301299] [-2.0988458159999999:5.0481791419578697] [-0.63947689200000002:11.494033022627701] [-0.97765465500000004:7.7738592602907701] [-1.8152364750000001:6.9872020421183398] [-1.260386402:5.14944684965928] [-1.2672832300000001:5.7675631072576099] [-1.005126655:8.6749720697244808] [-0.94265141399999997:15.7373116874126] [-0.65238335199999997:13.113545616899399] [-0.82791891399999995:6.3060748311882202] [-3.2336270119999999:4.94194133988755] [-0.53906383000000002:13.353611870460799] [-0.50434310599999999:40.714938400056297] [-0.55144647599999996:10.5060047912622] [-0.52526476799999999:12.6740817789145] [-1.039917465:11.099268169303899] [-0.48778873699999997:19.6859424013658] [-0.50023216199999998:15.067437745124501] [-1.3318086:7.1397213824758303] [-0.95571894999999996:9.9355166266166997] [-1.4082588069999999:6.0906590015130204] [-1.065801443:5.6307570346179503] [-1.198003368:6.6956855956528898] [-0.91824243999999999:8.0769895147758497] [-0.45336384699999999:13.044397863300899] [-0.55632388099999996:18.1485676399559] [-0.71637830599999996:7.2883341142396398] [-2.673267155:5.6056857090000003] [-0.69904847199999998:7.9832339771719001] [-0.42952459999999998:20.099556596755701] [-0.99203109700000003:6.5777567043576601] [-0.84920861599999997:9.0093382584375004] [-2.279557778:5.26553137383811] [-1.4442803239999999:5.5655410098320202] [-1.0926157219999999:7.9596580045702003] [-0.73591156499999999:9.1306926238650998] [-0.58866064399999996:8.8933494351806495] [-1.514253463:4.3499327727276302] [-1.4222497700000001:4.9919880127111904] [-1.8870336839999999:5.4192460823559303] [-0.73657020399999995:19.436539260687098] [-0.471346873:27.649606674808499] [-2.3868528470000001:4.9911273369259401] [-0.59156324000000005:21.039383954078801] [-1.109032749:8.07839265521622] [-3.3134748809999999:18.737635970211102] [-4.4800647390000004:6.7686520035648003] [-3.3407756700000002:11.869716567148] [-4.9287295929999999:16.651603254957699] [-3.0196622610000001:7.5938182511342296] [-2.1810602540000001:21.414893921597201] [-3.769392115:10.874627894076401] [-3.9241207330000001:5.5673983676923404] [-3.5049835969999998:5.1088487084503003] [-2.687597324:6.9264033367786499] [-2.4528495509999999:4.8634611630345699] [-3.4817210159999998:8.8059644966413302] [-5.3909626150000003:4.1399256951487802] [-2.9592759179999999:17.648171627861998] [-4.6908132609999997:13.5772137216945] [-2.8605746079999999:6.3563626081978697] [-4.1661849760000003:4.7215267498067996] [-1.0275949820000001:15.086513295348199] [-2.0371265310000002:7.5423885763348597] [-5.5029817239999996:8.3689390288163992] [-10.566188179999999:13.0998993382458] [-7.665009457:16.912141393950201] [-2.627130738:5.8937023938913802] [-3.8584952750000001:14.3547789550557] [-2.8388783790000001:24.612602666269598] [-4.3789156729999998:4.5920970082987003] [-5.773423609:7.797588127] [-7.4415905389999999:9.1007221311167399] [-4.9000010039999999:21.415800807306599] [-1.4145535090000001:12.508417971982899] [-7.6870025049999997:12.416842773414899] [-3.8195620699999999:4.7890663531932596] [-2.6487837509999999:6.9366176725263902] [-10.051512580000001:18.787573156208801] [-14.32410728:17.190302868049901] [-8.5779001420000007:10.1493904866155] [-4.350638966:8.2920706884334994] [-6.404060114:7.9311110292036302] [-3.3677344050000002:7.71209172119576] [-1.9793917990000001:4.6571385654516204] [-3.4375981690000001:7.7728545049769098] [-4.290848521:5.4346738576548397] [-5.1602890849999996:6.33583514576826] [-4.6078101690000004:17.0212647502333] [-3.627994513:18.7973346245596] [-4.7415316900000004:5.3216260273208604] [-1.320739839:18.0705858687062] [-9.1169352089999993:14.9175808630212] [-1.824289284:18.661867215711101] [-3.3155722660000002:12.4343946911687] [-4.6082057159999996:8.3323820181708701] [-3.5246731250000001:5.9744090816326496] [-2.3814989029999998:16.626152340896802] [-5.3554028349999996:7.3814778222622603] [-8.2318130939999996:17.27159447] [-4.5582205800000004:7.5230640064297702] [-2.836647836:4.3946786647292102] [-3.1586185059999998:6.6011626595320303] [-2.487625188:16.4179529869409] [-4.391677574:8.4027664628040704] [-1.0908301869999999:14.9484879434085] [-8.7055352050000003:17.511121004274798] [-3.049261998:14.144845973359599] [-7.3087050690000002:22.152125368720299] [-4.0974434029999998:6.6553005737741397] [-4.2620293680000003:5.8552143074656096] [-9.9740713440000004:19.337017715078201] [-6.8786149720000003:9.3163891920000008] [-1.1633527420000001:14.48136852] [-3.382975595:26.723414935021999] [-4.875595873:8.2336093529797001] [-1.6304061599999999:18.925332918514499] [-2.5970801990000001:7.6781338950000002] [-6.3627879539999999:10.324832357033101] [-3.349999226:6.1434232601723] [-3.000344932:5.5905127790813198] [-3.3856282809999998:7.3744842853528301] [-2.1544864220000002:4.22502492632022] [-6.2610652:13.8486034959181] [-8.8579060960000007:15.5877933792741] [-3.3737506650000002:4.6515872797120403] [-8.4670536500000004:12.2656243724037] [-1.1642881810000001:15.8418097282029] [-0.84019142000000002:18.2194475811181] [-4.2750658589999997:4.6872886972899597] [-4.1303655910000003:18.169195539891] [-10.09995492:22.890725422464801] [-2.3844439679999998:11.2623423536144] [-5.1633012909999998:9.2693180703509199] [-2.4727050039999998:36.168724293048001] [-4.5627915740000002:6.4356208284774601] [-1.015836086:21.167132224367599] [-5.7131711159999998:8.6126166007893694] [-0.683110683:18.750384393360498] [-3.2226399990000001:5.5182290519509696] [-4.5752364129999998:4.1252737385389002] [-3.8995372619999999:14.6260785368297] [-3.6651691560000002:17.786260259372899] [-1.130211192:16.435444421894701] [-15.58628835:18.422185071343701] [-4.7517120930000001:8.8223811471683398] [-4.7942591490000002:7.5470612151055896] [-6.0189920280000004:7.6319524168366] [-10.74932905:11.274355313944101] [-0.77514258400000002:16.3290511344902] [-1.362572246:19.6224212291181] [-3.0740994559999999:3.8863377857820298] [-3.7685677289999999:8.9548901884538399] [-4.1001166910000002:6.4462857492627004] [-12.620536299999999:26.373999097313099] [-3.5274951859999999:11.191696292813999] [-3.2300606200000002:25.225479865531] [-7.5011293999999999:19.158316314707001] [-1.767251938:32.206672317776103] [-1.1441348950000001:16.712736288302601] [-7.0068019020000003:11.790073831686501] [-2.3697999890000001:14.850053587596101] [-4.7306512359999999:10.1855462537906] [-1.578286353:17.500264659910201] [-3.6591935050000002:10.1764300424065] [-3.6190282520000001:6.3682749144074098] [-4.1835229890000001:11.5070882492645] [-2.4691541080000001:17.329983729193401] [-6.6301244339999998:6.1954206081415499] [-7.7103744589999996:12.1749195600591] [-5.5574762120000001:23.817004790375599] [-2.704527718:7.4428724844411702] [-1.4664942780000001:18.542085735917102] [-1.3872499039999999:18.008062901332] [-3.5717602290000001:4.8277152955082698] [-10.09803857:15.801681417886501] [-4.5083633609999998:9.2868385531534496] [-2.28767656:6.0557750729430797] [-5.0693590009999996:4.2209146784537896] [-2.6747181179999999:4.4520143401707601] [-3.8117957219999998:4.6403953948976602] [-6.8465303679999998:10.422565295293699] [-11.74431491:29.793309973667199] [-3.5064575699999998:5.5692876350238603] [-5.373474152:7.1860483254506304] [-5.0523503710000002:5.94562962130939] [-2.4342854740000002:6.3066196884005601] [-9.3777032249999994:16.8052145217911] [-5.641010766:9.2356104049999992] [-4.3043641189999997:6.5170862083304204] [-3.7704409769999998:5.8525736251450597] [-3.6004852500000002:4.6225440637772497] [-2.5203144160000002:15.567584949170699] [-3.6194643219999998:14.8720415386783] [-0.62770506699999995:28.959143670346599] [-5.3490197589999999:8.9633367073324894] [-7.2316707009999996:17.628428060509101] [-1.5173630979999999:16.800656994680701] [-3.0842851480000002:18.130288046250399] [-1.9389251519999999:18.7136492450385] [-5.1099111769999999:5.9792103433307604] [-9.3791246089999998:25.2652204331497] [-3.7231377609999998:8.9020036871327406] [-4.5284102309999996:16.059183729888701] [-6.0303312800000004:9.0011639057962007] [-3.7792074659999999:5.3115606913442299] [-3.608623906:7.9511708643425303] [-6.6863278519999998:12.6441428643429] [-7.5893253109999996:15.0483048366084] [-4.2974640690000001:5.24421456196053] [-2.4449519390000001:13.6967450171152] [-16.869341819999999:19.554385649301899] [-1.2678273659999999:16.974264330730101] [-13.65775137:15.6081195407187] [-3.603137587:4.6393335300621796] [-3.5639621259999998:36.031550119352197] [-3.5618641360000001:5.2941163661063504] [-6.1899858029999999:18.739378141714901] [-5.0562888079999997:6.6640719512053099] [-3.0668440829999999:8.2259828668640598] [-6.2418266039999999:25.1430481380381] [-10.58344891:16.134596756157102] [-9.4120692859999995:11.711939218432599] [-5.8610338369999999:6.4636967402683299] [-3.006737802:4.0262246314257704] [-4.1861882000000001:9.2660477367164304] [-3.782673596:6.8619167410702797] [-2.9341851280000002:3.9025103878788499] [-2.4179211700000001:5.1729349215512901] [-2.6315618999999999:19.7541925717452] [-18.46929334:18.798132680499499] [-13.939908340000001:18.831875599684501] [-2.5128470100000002:37.022587287248498] [-3.4445535789999999:4.91094033548866] [-4.6449492149999996:5.7370881756869103] [-3.784701767:7.42874798227081] [-2.1038589440000002:14.6244621753376] [-2.9329884609999999:21.068585813673199] [-1.321145638:16.765679456558701] [-3.1362961870000001:6.2055300425232502] [-3.8268291680000002:18.163582017686299] [-13.49043283:14.420687600995301] [-4.3450920860000002:13.3413149309209] [-9.505666068:15.4060375216945] [-1.7078615610000001:13.479621541926999] [-6.0494090979999999:9.4614596734332999] [-4.0940446709999998:15.3518277574873] [-7.312535263:19.2171781575199] [-2.0870378700000001:4.3511896345509697] [-3.269615699:4.0672939869175497] [-8.1560312750000001:12.451334002231899] [-6.8513848629999998:17.304935072034599] [-7.9305190970000004:11.466168303523901] [-2.9171280629999998:6.8397867341260596] [-12.83532027:11.3046301296284] [-3.5859788749999999:4.3473675503341704] [-8.9216261790000004:23.754931668917099] [-2.1968578230000002:11.1069803723398] [-3.9539178810000002:13.419528738815799] [-7.1074355669999996:16.6479403111666] [-2.579764537:7.4560318725321597] [-5.0282309029999999:8.16800247651177] [-3.2808973190000001:6.8837779890503397] [-5.035837205:10.316430063879601] [-3.289760179:8.1670213289025799] [-4.343261612:21.2441257250861] [-2.4855295060000002:8.5039979051261891] [-5.8705996919999999:7.8627022200039702] [-5.6589159440000003:10.338878911136501] [-3.855412474:6.0561466876168897] [-5.9424555760000004:9.2820096237266405] [-2.3883072300000001:9.6746929851816006] [-6.2944637649999997:16.092486910970901] [-4.1356991689999996:8.4352832480004292] [-4.9619124179999998:17.110979241444699] [-3.774545748:22.406139848241601] [-7.3123746799999996:27.022716055277201] [-4.1461207949999999:13.8659727107575] [-1.9358962239999999:23.5604494302635] [-4.3679372709999997:20.905145590291198] [-11.58532106:22.526072143962999] [-5.1085713349999997:10.353671670718899] [-4.1692443460000002:12.482006558600601] [-4.9841143419999998:7.6263308816524598] [-10.989840620000001:8.1686143598825893] [-3.0537898719999998:5.92411535196476] [-1.8734775960000001:23.4553669657586] [-4.8587929440000002:12.6550309054451] [-5.2257908339999997:18.200287096581398] [-4.0855432460000003:8.9227296035170696] [-3.3673168769999999:6.9749959278317997] [-4.9715664349999997:8.3665022598446193] [-3.666422968:12.0561061121825] [-5.2260920229999996:5.6943050569400704] [-2.597560868:8.7008153128372907] [-10.176293680000001:11.517832223080701] [-2.6277571110000002:8.4410532534285707] [-3.493603867:7.0358042495528998] [-4.1438229609999997:5.2428605738669898] [-0.98422944199999995:20.233902135188998] [-3.6372523719999998:10.8170370473105] [-5.3699376780000003:14.2148599479704] [-7.1597517699999997:8.6081975767824304] [-2.679318367:9.1149183603069197] [-12.29814801:15.5282673192961] [-7.167738248:7.1898473640290499] [-6.807383798:13.0936033590463] [-2.548784994:12.987240845908699] [-3.6330521619999998:8.5164422585909101] [-2.3451341490000002:9.0954436743329694] [-3.4575344650000002:18.460655721433799] [-0.99049649399999995:20.351509391221299] [-6.8364058840000004:9.0026180387765997] [-4.3968437690000002:8.5127347875420707] [-7.6448477019999999:24.551219762660502] [-1.192107823:24.5785608878796] [-8.0970376349999995:10.377923120103899] [-16.224820959999999:24.177018692175199] [-4.3057404269999999:11.444101066603899] [-2.915224722:14.7318903326097] [-11.97293822:24.5545523188567] [-3.7466557850000002:15.0183777304605] [-4.8002234079999999:10.5536323929818] [-16.859966669999999:18.192378889694499] [-3.5969301370000002:11.554458344190699] [-5.7256021380000002:17.166691107143599] [-3.7484018959999998:8.3294524177274205] [-5.5758001029999997:9.5827114914525993] [-5.5614197369999996:8.4045052656493198] [-2.1370348109999999:8.8760168910997699] [-1.187386922:24.434222471215399] [-3.1553236939999998:9.5012633530481203] [-1.0346039840000001:21.240206662202102] [-2.618264736:4.4838585873182799] [-5.6550374090000002:11.1794771208267] [-6.058811607:17.177852391127001] [-3.8310345849999998:8.1333534606450097] [-3.623538741:7.86385939420511] [-1.0585700060000001:21.835858321498499] [-4.1353252979999997:5.8334430699080899] [-5.2238273939999997:18.040728223202599] [-1.1301061590000001:23.075113034701999] [-4.3668585420000001:6.3356710760558901] [-4.4822939100000001:23.2600607566688] [-4.8934458679999997:5.4216427759556796] [-4.026722779:11.4905484912045] [-4.9735576210000003:9.3140865854482193] [-5.2681457549999999:8.3811714130881398] [-4.9318184650000001:19.918318855822999] [-3.1377237330000001:7.7975971236891901] [-4.673918703:11.130089198712501] [-5.4056887610000004:14.489185548935099] [-9.2825280180000007:3.4056801204196101] [-3.9986121049999999:14.880474740796201] [-1.2034857800000001:24.861444892072299] [-5.1836535719999999:15.864997930890601] [-3.9150923839999998:4.7811953961735902] [-2.952170266:7.1010558774848196] [-5.3910759649999997:8.3360736571271801] [-6.840623516:8.2191753979255093] [-4.5293721549999999:8.5466650240462201] [-7.4203982609999999:17.9942212103958] [-4.4958356359999998:22.596752443720199] [-3.4936930039999998:5.00086565586889] [-4.2535251699999996:22.8967961776107] [-5.4239134330000001:10.308120412833899] [-4.8437854209999998:14.6612929152818] [-4.6805050440000002:9.1436614419507993] [-3.9632513559999998:5.3454429279999998] [-10.28102161:16.662625602209001] [-3.3661972570000001:9.0868076119681405] [-10.45779413:14.155406259185799] [-7.3400854219999996:9.0240322829337103] [-7.6965628700000002:9.3875381922647101] [-3.5662914090000002:6.7032735737502502] [-2.6826827080000002:4.5629863532732404] [-4.4759201800000001:22.389156370099499] [-4.16230207:7.92203270445094] [-4.3058247359999999:21.286498555303599] [-3.1958719050000002:5.4582336066065] [-4.9484740140000003:22.115391195325401] [-8.8410959699999996:10.035520425746901] [-2.6082776129999998:6.2567804811248502] [-7.0699513400000003:16.729323036406601] [-8.2592105769999993:9.3878422493802898] [-5.8451495449999999:15.2668276768825] [-5.9615065349999998:27.728951015097699] [-3.0813663920000001:5.1763094461513903] [-8.9218223099999996:14.0434533626351] [-6.7465538570000003:10.420954736451201] [-5.3876897929999998:8.0630486281925098] [-7.9516964459999997:16.5983039536899] [-2.8383082439999998:14.9246146550256] [-6.1173172830000002:6.3369857800055103] [-4.9847036359999999:7.9422539646190504] [-4.222571211:22.502868352343199] [-4.8027156980000001:8.2830850050058107] [-2.6314023670000002:11.536326889197801] [-5.2283943480000001:9.8730443464642992] [-4.4982034019999997:21.4855911195679] [-14.67239781:17.231332047527001] [-3.321819225:9.3839556878519605] [-8.1260559560000001:14.9171905201452] [-3.474643752:12.459706727058601] [-4.6051508129999998:17.783000700169801] [-5.1828761400000003:6.9178676463097002] [-7.3129274239999997:18.068192216634099] [-5.5235092039999998:19.1322896942646] [-6.7394604920000001:10.254228654742199] [-7.9442694469999999:21.4642002969392] [-4.0644472839999999:13.971559988589799] [-4.6385813899999997:10.464963105356899] [-4.638836403:11.2162484521654] [-2.8627864600000001:11.1930639438654] [-6.5256919959999999:11.965826724300401] [-5.3980761199999998:6.5308469273107796] [-5.723022211:14.1787911727156] [-0.98214902699999995:20.278146730289802] [-4.2259594729999996:9.69953647786026] [-2.3419213999999999:25.966950457569901] [-12.31998192:23.217874633166701] [-4.155979447:6.1817186513622202] [-8.1201336269999995:12.5453729519791] [-4.630371545:9.1548892535128701] [-5.908569344:10.8417854108657] [-15.277515749999999:13.596025644729499] [-1.0410220699999999:21.416839755860899] [-5.7319550289999999:6.2630817510750596] [-4.844487236:9.6012472965783395] [-17.38278425:14.9855341112175] [-5.2849619749999999:8.1159277130321801] [-6.7567170489999997:8.6888361353454702] [-4.7747651910000002:11.2164862724616] [-2.7384723169999998:16.004311139220501] [-1.1389154720000001:18.6192355489028] [-3.0679891810000002:5.5025041584809804] [-4.9738697849999998:12.644411580108001] [-10.731630640000001:7.92925651918278] [-12.77422627:8.0194705281262895] [-8.9700644090000008:7.6819295319510896] [-4.3199909170000002:8.8142538407957396] [-2.4835896800000001:20.258640058732901] [-21.499520919999998:20.497738484844799] [-7.510357269:10.628074875042399] [-6.1665690460000002:11.0035895258842] [-3.1094803369999999:5.69802510819164] [-3.2145656900000001:8.8579165811570295] [-3.384761412:13.1730449753369] [-3.0664099029999998:11.3804095649757] [-2.267414847:11.7878840189203] [-5.7553879639999996:21.517309196586599] [-2.4585960359999999:11.7377631625835] [-5.9829450499999997:6.9651717687120396] [-2.9920639850000001:5.5888079074362196] [-4.8038684370000002:7.9912057287279001] [-5.0585776940000002:16.4922974449135] [-2.9276363220000001:7.6189242648588102] [-3.3137046319999999:17.258302534918698] [-19.085169019999999:15.530957548960901] [-7.9480915200000002:11.746959773773099] [-7.3107759359999998:13.6543263850816] [-4.5283955430000002:6.36643499905475] [-2.0626152489999998:12.0111836699311] [-7.5840141409999999:8.4790471389319695] [-9.9599611629999991:19.9849297057659] [-1.075306976:22.161129684198301] [-3.2057929650000001:31.638536448711701] [-6.4756208009999998:10.588994936321299] [-4.3602650890000003:20.228328263721] [-3.0334167160000001:4.6564582311678198] [-2.7064657300000001:9.6349251957873001] [-5.4115511999999999:14.7290124586619] [-10.019424409999999:20.612342248978901] [-4.5558613299999999:8.7003032477087299] [-2.5497729580000001:10.300780671150999] 